embeddings,0,1,2,3,4,5,6,7,8,9,10,11,12,13,14,15,16,17,18,19,20,21,22,23,24,25,26,27,28,29,30,31,32,33,34,35,36,37,38,39,40,41,42,43,44,45,46,47,48,49,50,51,52,53,54,55,56,57,58,59,60,61,62,63,64,65,66,67,68,69,70,71,72,73,74,75,76,77,78,79,80,81,82,83,84,85,86,87,88,89,90,91,92,93,94,95,96,97,98,99,100,101,102,103,104,105,106,107,108,109,110,111,112,113,114,115,116,117,118,119,120,121,122,123,124,125,126,127,128,129,130,131,132,133,134,135,136,137,138,139,140,141,142,143,144,145,146,147,148,149,150,151,152,153,154,155,156,157,158,159,160,161,162,163,164,165,166,167,168,169,170,171,172,173,174,175,176,177,178,179,180,181,182,183,184,185,186,187,188,189,190,191,192,193,194,195,196,197,198,199,200,201,202,203,204,205,206,207,208,209,210,211,212,213,214,215,216,217,218,219,220,221,222,223,224,225,226,227,228,229,230,231,232,233,234,235,236,237,238,239,240,241,242,243,244,245,246,247,248,249,250,251,252,253,254,255,256,257,258,259,260,261,262,263,264,265,266,267,268,269,270,271,272,273,274,275,276,277,278,279,280,281,282,283,284,285,286,287,288,289,290,291,292,293,294,295,296,297,298,299
arachnid,0.13140668,-0.458525658,-0.186685741,-0.224318221,0.036517896,-0.149033517,-0.014998463,0.162132144,0.235546395,-0.452173352,0.126034215,0.43000564,-0.004811103,-0.119441681,-0.331791848,-0.003771098,-0.668433905,-0.197047934,-0.124970742,0.225138843,-0.328145355,0.532254159,-0.067020893,-0.150813505,0.491224706,0.320737451,-0.458872497,0.003955032,-0.013831415,-0.020744585,-0.022130635,-0.24876529,-0.221634477,-0.358341187,-0.080703266,0.530350566,0.554099202,-0.354852229,0.550362885,-1.003735304,-0.155115679,0.178355038,-0.232013762,-0.376446337,0.049332894,0.433981866,0.051181186,0.146027297,-0.245438531,-0.448390126,-0.110399172,-0.194604829,-0.223419279,-0.268285781,0.294895202,0.498137385,-0.133191809,-0.297336191,-0.028290873,-0.560124934,0.18332769,0.365390211,0.45258975,0.195771784,0.115017213,0.571610093,0.10980738,0.962797701,0.431549489,-0.683317959,-0.417198807,-0.228520125,-0.320840359,-0.19200094,0.435813159,0.594171524,-0.20971933,-0.085291393,-0.516588986,-0.02118255,-0.041618515,0.269225568,0.557582378,0.579782426,0.037908986,-0.614809513,0.048294902,-0.042051319,-0.423003405,0.113349818,0.246478766,-0.289102882,-0.161261424,-0.190979689,-0.092321247,0.267084628,-0.274539053,-0.049656756,0.776824296,-0.040061876,-0.30766201,-0.13308163,0.407214344,-0.001423941,-0.153927535,0.004073408,0.039559353,-0.637583673,-0.000568604,0.49042204,0.503169417,0.442371517,0.052263729,0.10199406,0.037118763,-0.23822479,-0.293725044,0.301377326,0.416617453,0.208030105,0.108272016,-0.103514984,-0.547872007,0.134753823,0.460927755,0.096694618,0.106828339,-0.07024397,-0.182550296,-0.204257742,0.288525075,-0.1584526,-0.050787009,-0.472184628,0.074242264,-0.378666461,-0.192532584,-0.201980367,0.251859963,-0.501123607,-0.671429932,0.03260396,0.21074681,0.532531917,0.155070007,0.168355271,0.68243742,0.021799628,-0.050136074,-0.504808426,-0.508261979,-0.325898945,0.83831656,-0.105238967,-0.119943947,-0.074975386,0.266801059,0.247366056,0.000557844,0.020543886,-0.074256241,-0.421478897,0.219588891,-0.225223705,0.073673144,0.00586824,0.532550514,-0.123376682,0.162193686,0.308044612,0.223138452,-0.165538818,0.338027149,-0.274232805,0.316411048,-0.069302246,0.436885536,0.383216321,0.321219921,-0.413882107,0.082055412,0.009948025,0.23277469,-0.071608767,0.126815051,0.198597565,0.128291637,0.041534387,0.287772834,-0.30603376,0.076535739,0.050231546,0.144777358,-0.362107337,-0.245637342,0.511133254,0.504842877,0.238489687,-0.317732185,0.028564077,-0.973276913,0.515763223,0.009204427,0.104958929,-0.393044263,0.505108953,-0.079184577,-0.383789986,-0.113560483,-0.272390306,0.028932909,0.23739928,0.209718376,0.353399009,0.321177721,0.550690651,0.142844692,-0.226568371,0.201426536,0.518084526,0.577547789,-0.164242432,-0.018850416,-0.188609824,-0.168652505,-0.389105201,0.374030203,0.0865274,-0.120108224,0.022338912,-0.211059988,-0.034351531,0.371315032,0.394084215,0.14548862,0.068887688,-0.397356093,-0.015156075,0.165289089,-0.381001532,-0.180204883,0.133749321,0.31995821,0.407927841,-0.552273393,-0.206100479,0.10102693,0.590846777,0.357625633,-0.219864607,-0.073060878,0.37674883,0.331253916,-0.566541433,0.109107181,0.084141344,0.032023638,0.078338973,-0.369155109,-0.295422822,0.168752387,0.151233345,-0.344688684,-0.278169841,0.078316152,0.383301258,-0.000230245,0.052630398,-0.350409776,-0.210670337,0.04550064,-0.098319247,0.030692412,-0.053175963,0.227827668,0.170191973,0.166535169,-0.066780731,0.250152469,-0.261389077,0.106002569,-0.176905081,0.287790596,-0.388525218,0.200269982,0.884139597,0.115947813,-0.321147382,0.327928215,0.090915382,0.309506685,-0.117665976,0.068438008,-0.332856983,-0.037309442,0.08961428,-0.061270874,0.133179367,-0.290019661,-0.207918271
armadillo,-0.210277662,0.007334102,-0.173680231,-0.355114371,-0.054984994,-0.326332897,-0.052783992,0.182345852,0.635629654,0.382538319,-0.250198275,0.195547134,-0.134687752,-0.015247894,-0.134120673,-0.397781819,-0.392501652,-0.362136185,0.088171452,-0.441436261,0.040471535,0.412961155,-0.167922586,-0.217677355,-0.021998269,1.260766745,-0.054164533,-0.397614181,0.448692679,-0.13144666,0.19107765,-0.674519598,-0.288737625,0.049876858,-0.51775986,-0.242200926,0.432493687,-0.335035503,-0.316093177,-0.678070128,-0.826413274,-0.007879173,-0.408536106,-0.469699591,-0.158888727,0.217573792,-0.335842073,0.378585249,-0.260085911,0.130276635,0.454583049,0.055790838,-0.613218009,0.360318273,0.077839062,0.189740151,-0.210119784,-0.173146695,-0.152979746,-0.027727026,0.075788625,0.469136178,0.202822596,0.556078792,-0.112539634,0.077156104,-0.306217641,0.283297688,0.356916219,0.244011715,-0.064167403,-0.029930256,-0.713020742,-0.22411941,0.592033088,0.275331706,-0.080384113,-0.700346172,0.042791672,-0.168252587,-0.242952704,-0.442986935,-0.323392451,0.08850944,-0.266614407,0.180476978,-0.122664012,0.029945726,-0.308392525,-0.349548072,0.332168967,-0.053478964,-0.307429135,-0.189950317,-0.129724085,0.101683222,0.008185484,-0.355382055,0.261978924,-0.063702822,-0.269888699,-0.284429222,-0.216399163,0.079124048,-0.263729602,0.273389548,-0.539304554,-0.505046606,-0.045227606,0.568368196,0.052882977,0.15731816,0.605852544,0.331058234,0.132404476,0.065614834,-0.138154522,-0.229431123,0.403398454,0.190027565,0.222092167,-0.067315944,0.020555045,0.097404063,0.20242317,0.008846373,-0.109711029,-0.123446241,-0.296064138,0.076261759,0.523738205,-0.059315253,-0.267858744,-0.302582264,-0.264241636,-0.181992963,-0.463045597,0.125432849,0.434672356,-0.459540188,-0.258200705,-0.152058214,0.42208153,0.239552319,-0.093227856,0.108594492,0.730555534,-0.078809142,-0.266655803,-0.496653408,-0.324091405,0.137927145,0.314103991,-0.242376238,0.320743561,0.281564325,-0.138245791,-0.235616222,-0.033686738,-0.236515269,0.014688276,0.409929574,0.596786976,-0.226664186,0.236790478,-0.394017249,0.020031635,-0.005039193,0.255144507,0.113763236,0.278556526,0.633031189,0.297764301,0.049684621,0.033988521,0.278247505,0.017053625,0.077473037,0.364124179,-0.569324017,0.288493901,-0.211640701,0.131496191,-0.093779489,0.302187353,0.545974255,0.152792275,0.061504833,0.101208173,-0.241557658,0.322073221,-0.251251936,-0.169127822,-0.12219286,-0.1645246,0.41623652,0.05505494,0.218957037,-0.601325214,0.018924499,-0.258427978,0.486263841,-0.371193379,0.044190891,-0.44518742,0.535175085,0.162742466,-0.267243654,-0.707756102,0.139109373,0.282248676,0.103360668,-0.042824473,0.087184459,-0.273793072,-0.397542804,-0.129876584,-0.224223137,-0.108805351,0.224115044,-0.100456342,-0.187414035,0.118144214,-0.054565772,-0.51960206,-0.402749926,0.475196749,0.036003187,-0.083217666,0.063295737,-0.375403225,0.065070443,0.234731302,0.41744709,0.311568886,-0.057005879,0.024435444,-0.236594975,-0.236191288,-0.234717637,-0.475270957,-0.09942323,-0.114493407,0.139178976,-0.388001293,0.016819112,-0.013736189,0.294200242,0.510739923,-0.34895736,0.184676111,0.542725801,0.375710249,-0.324690312,-0.25551337,0.469696999,0.162680492,-0.04938554,0.002531039,0.076447859,-0.060743351,-0.227804512,0.236739784,-0.533350587,0.284952343,0.056807447,0.027032794,0.582530379,0.001120139,0.504857183,0.670480371,-0.03146258,-0.180674851,0.604423285,0.110658012,0.563685954,0.420333713,0.347669095,-0.083124384,-0.23006013,-0.13886027,0.358605236,-0.076567888,-0.15483968,0.179794401,-0.289732397,-0.235016406,-0.075959302,-0.206495225,-0.244395763,0.190163642,-0.306303978,0.091979414,0.597343147,0.32922399,-0.282013178,-0.51332432,-0.223208606,0.007875568,-0.377111018
bear,-0.328148544,-0.085332684,-0.048054811,-0.211929828,0.203717023,-0.139931828,-0.026478693,0.193559557,0.297011912,-0.28439346,-0.338420987,-0.032015197,-0.196235105,0.162296534,0.09104459,-0.281357169,-0.075397097,-0.044813242,0.018113166,0.350177079,0.06991373,0.380923122,-0.091516346,0.174390167,-0.057647221,0.168396592,-0.543473899,0.344342738,0.229860216,-0.012372111,0.27871865,-0.172840253,-0.479012102,-0.053333897,-0.211488828,0.20246993,0.214819312,-0.276282072,-0.193539843,-0.129751548,-0.269751936,-0.026148623,-0.142060831,-0.467214733,-0.407730907,0.244104564,-0.11990194,0.059145089,0.013508163,0.219034702,0.445336759,-0.052393179,-0.216681689,0.263570666,0.340504736,0.02212934,-0.2655873,-0.275506526,-0.14529416,-0.19642441,0.037030913,0.358994573,0.20818302,-0.054804403,0.113072999,-0.028151209,0.136257827,0.135017261,0.47553128,0.17018877,0.089439556,-0.120621555,0.207680583,-0.155030295,-0.14066112,0.219945118,-0.286348969,-0.027821306,0.332390815,-0.108097181,-0.215756908,-0.509748995,-0.13981536,0.198436648,-0.138924971,0.104480363,0.157056928,-0.228036731,-0.052332994,-0.154575735,-0.356851608,-0.041053094,-0.130712375,-0.255846769,-0.416779101,-0.220375404,-0.001756045,-0.194818631,-0.140902966,0.254204005,-0.599783778,-0.15185459,0.305160075,-0.12629436,0.100893408,-0.112032101,-0.19671005,-0.337459803,-0.122918546,0.49741146,-0.189598337,0.202621222,0.126358733,0.20084998,0.16550675,0.097953171,-0.221022129,0.230539754,0.396775544,0.020143399,0.188276514,-0.06935738,-0.04528914,0.131094322,0.207787991,0.147881597,-0.217710167,-0.027233571,-0.227016076,-0.145578444,0.289276421,0.192241669,-0.09333685,0.058693461,-0.261133134,0.183000132,0.05083904,0.109190874,-0.010961225,0.165002912,0.041327242,-0.391769767,0.421454638,0.542090297,0.182978287,0.313457638,0.358826727,0.146973729,-0.213648066,0.125552475,-0.048953623,0.004203372,0.036567297,0.031781036,0.251747966,-0.175789088,0.163075864,-0.177297741,-0.214110717,-0.538740277,0.094976149,0.364618152,0.355838865,-0.093287289,0.210355267,0.046433989,0.123437323,0.114802361,-0.079386175,-0.074265867,0.593287051,0.331111014,0.380149603,0.239856705,0.059524056,0.527024925,-0.319901496,-0.190253839,-0.068451747,0.057308454,0.749824226,-0.388972253,0.01993566,0.397754848,0.10150408,0.302129418,-0.702502906,0.187876314,-0.091035344,-0.229486048,0.178266928,0.016515,0.059960995,-0.123497657,0.309091419,0.205238864,0.27300337,0.028348485,0.236004487,0.093631551,0.203133762,-0.16139999,-0.053654574,0.262880057,0.177395031,0.04022241,0.032256622,-0.15702042,0.041949462,-0.559808195,0.329675555,-0.099108316,-0.073044829,0.206945688,0.081507243,-0.027609136,0.156999201,0.059689309,-0.004374123,0.032193776,0.413378745,-0.377500147,0.204138279,0.131646156,-0.183347732,0.074443296,-0.229910791,-0.203526214,0.369187564,0.001314647,0.188725114,0.113704734,-0.016840838,0.440344512,-0.100021496,-0.316118747,0.020576432,-0.120052159,-0.141085595,0.038327992,-0.644361556,-0.092626445,-0.210677594,0.170603067,-0.000246276,-0.149907872,-0.276806653,-0.03218922,0.42677924,-0.029013893,-0.144082665,0.175209478,0.365568638,0.084446773,0.066804469,0.078377463,-0.177825511,0.128570303,0.231834248,-0.212149635,-0.412531286,-0.039754301,0.22794649,-0.126584649,0.866621375,0.226189956,0.015870122,0.18198736,0.080107175,0.24783057,-0.04544118,0.199257717,0.097740188,0.125697121,0.209238142,0.095592074,-0.573838174,-0.142239228,-0.306032091,-0.15722096,-0.194117859,-0.178534254,-0.029026426,0.060331523,0.060368013,0.155841529,0.162299529,-0.254697293,0.034405425,0.12678653,0.3563447,-0.195262179,0.124709286,0.120976612,-0.15061973,-0.14293538,0.005482504,-0.583726048,-0.025211671,-0.370127946
bird,0.039037552,-0.092476249,-0.408084065,-0.226203829,0.03106929,-0.321038693,0.092205852,0.173365489,0.145149946,0.028983731,-0.099097364,0.048685741,-0.276617557,-0.23914656,-0.207183927,-0.230313584,-0.645743489,-0.159583494,-0.101753436,0.096649967,-0.645780981,-0.030790402,0.126035586,-0.134429112,0.39373818,0.227698773,-0.299349427,-0.361949921,0.442187369,0.017181734,0.202645391,-0.404416472,-0.295688212,0.10869319,-0.013954693,-0.069299348,0.535334647,-0.325846523,-0.17086336,-0.295726597,-0.220457941,-0.229644239,0.133453608,-0.038898014,-0.332336634,0.309706241,-0.372381777,0.320183247,-0.227011397,-0.072476774,-0.106709309,-0.051690433,-0.267405093,-0.05089042,-0.174364522,0.039956901,0.132660061,-0.012956989,-0.357792139,-0.031041605,0.264607608,0.172382608,0.001610808,0.088280439,0.23900646,0.051582828,0.004701956,0.391988695,0.306914598,-0.062823705,-0.146810651,-0.236175895,-0.578088284,0.291785955,0.054141734,-0.002766326,-0.01105732,-0.209957406,-0.352415591,-0.214063212,-0.374750763,0.030329011,-0.146167561,-0.261825204,0.093230024,0.108232297,0.34759596,-0.609832227,-0.088616796,-0.101631455,-0.192249805,0.280665159,-0.141734645,-0.07461632,-0.259202272,-0.151077956,0.093838789,-0.182247326,-0.28132987,-0.083147876,-0.367939472,0.049388383,0.677865744,-0.226136252,0.264899731,-0.151496828,-0.182788119,-0.086302623,0.17085585,-0.00710596,-0.020535748,0.086153455,0.297789544,0.214556649,0.54876709,-0.057008535,-0.351573616,0.224909782,-0.12142247,-0.146335006,0.226203978,0.156192273,-0.538007855,-0.131392151,-0.005199662,0.114850849,-0.027793925,0.182084426,-0.294727713,-0.08010453,0.101863153,-0.042338643,-0.000248239,0.15548338,0.012655038,-0.129840568,0.090094924,-0.057246797,0.359975427,-0.240825459,-0.167480886,0.312302321,0.192364722,0.180753201,-0.027501328,0.139243484,0.415727973,0.374444336,-0.035585802,-0.216855571,0.060582396,0.197721869,-0.085348003,0.428189635,0.154075339,0.253367603,0.487816066,0.152405128,0.138977528,-0.579843044,-0.101821378,-0.041199941,-0.030478312,0.456163675,-0.029770425,-0.008925094,0.045437198,0.06935747,0.244301453,-0.16028212,0.154381052,0.111392997,0.632625818,-0.189057127,-0.047157716,-0.077417247,0.554936469,0.270934433,0.14392361,0.207663819,0.147391602,0.130330071,-0.020045325,0.010050241,0.382306188,0.204084307,-0.302108675,-0.330845773,0.17709595,0.079178527,0.260598063,-0.476029247,0.087851986,0.078446299,0.237074241,0.254873663,-0.045151401,-0.131747887,-0.411497772,-0.038951263,-0.448330045,0.046638146,-0.163040921,-0.054283805,-0.155771986,-0.144960448,-0.149116501,-0.231404737,-0.184712768,0.188876793,0.175819829,0.155491322,0.240691751,0.065824546,-0.044796221,0.013771675,0.182704225,-0.244051427,0.376287669,-0.030126169,0.254235953,-0.051188886,-0.054057527,0.439909458,-0.039185338,-0.076336548,0.375026524,0.316109687,0.212056041,0.196782708,-0.276064575,0.241891295,0.198688209,-0.004284851,0.393436193,-0.427660853,0.15198569,-0.132436588,-0.151333898,-0.265348464,-0.204867885,-0.275428057,-0.232522532,0.03451002,-0.100484774,0.308714688,0.054277711,0.209838614,0.291751862,-0.14063096,-0.28717947,0.300508112,0.450781792,0.058595777,0.158973426,-0.102917135,-0.264440477,0.583823383,0.095172629,-0.307228774,-0.316280961,-0.041987818,0.065039702,0.076905631,-0.025450908,0.141289398,0.005625966,-0.059408676,0.062626548,0.047049113,0.203145623,0.115746535,0.212282076,0.504232466,-0.379318058,-0.111957453,-0.371449053,-0.403496504,0.339365631,0.275694817,-0.178727165,0.203040689,0.199654728,-0.037977315,0.080464065,-0.038296938,0.219587371,-0.011364484,-0.395334423,-0.126495302,0.179092437,-0.065410674,0.329960406,-0.043517075,-0.021086186,0.000168393,-0.215799496,-0.018773558,-0.001284397,0.009213011
bug,-0.616241395,0.047203682,-0.287998319,-0.350958079,-0.171304584,-0.587326467,0.279425591,-0.142098084,0.056216218,0.164500967,-0.057191655,0.194515735,-0.244983882,0.22446692,-0.438688636,-0.152328208,-0.009507343,-0.009744333,-0.193426386,0.289077967,-0.304174781,0.235821351,0.025901761,0.623450816,0.519826651,0.265406698,-0.197637662,-0.014686208,-0.190412953,-0.091376819,-0.131741822,-0.124257028,-0.09607657,-0.216291562,0.039936822,0.105738156,0.393808156,-0.161483556,0.418002158,-0.317369998,-0.271122932,-0.240528733,0.368022978,-0.307514638,-0.588175893,-0.227018848,-0.048999261,-0.170965627,-0.30064261,-0.118553407,-0.058232285,-0.406879932,-0.200079709,0.017731007,0.221417263,0.081732489,0.059473906,-0.12675938,-0.150734931,-0.169335172,0.209182322,0.381178617,0.036478236,-0.005223854,-0.170337856,-0.074368991,-0.183738336,0.260339946,0.645640969,-0.08302547,0.033181999,-0.101695091,-0.251666903,0.150431678,-0.105872102,0.244355053,-0.020104025,-0.008991935,-0.91333282,0.148517996,0.007489149,0.167863742,-0.079751752,-0.144190326,-0.05764797,0.382041007,0.452974945,0.071739487,0.113964915,0.092988461,0.079790287,-0.064963691,-0.100745499,-0.128794387,-0.106395498,0.222308695,-0.023665713,-0.073412597,0.157807469,-0.344414294,-0.373294204,-0.159914285,0.264388025,-0.079044901,0.200693533,0.439476311,-0.111396022,-0.602383733,-0.050213616,0.222075328,0.320153117,0.086222582,0.040316928,0.42929402,0.149379075,-0.337423474,-0.096862063,0.157209784,0.220864519,-0.256425709,0.040900532,0.713031769,-0.579880774,0.360168517,0.098458618,-0.089268148,-0.051488552,0.086436294,0.040527232,-0.222875148,-0.044836964,-0.433969468,-0.071784087,-0.036159448,0.250726581,-0.443049222,0.262438238,0.025054211,0.177023172,-0.100270174,-0.455757827,-0.135109738,0.080733113,0.195790246,0.101965778,0.207502455,0.424035221,-0.040058136,0.136393145,-0.09180586,0.027101468,0.05101151,0.425871432,0.407437772,-0.335077465,0.264313996,0.040313203,0.141580686,-0.05761756,-0.378197193,0.221555993,-0.038743634,-0.172580168,0.158350736,0.021477476,0.13576749,0.030913932,0.279696852,-0.263396978,0.095601216,0.290069282,0.222112849,0.192155793,-0.212054357,-0.309932232,0.204232976,0.127392262,0.411665797,0.044536699,0.036416646,0.115946203,0.067638248,0.355615586,0.268776625,0.214714229,0.446837425,-0.044776712,0.108209535,-0.226933807,-0.068625689,0.094978824,0.203925684,-0.04004316,-0.147370532,0.06116147,0.201907605,0.131634176,0.2746315,-0.130588502,0.241956323,-0.30534935,-0.267004758,-0.024346955,0.058165822,-0.402107954,0.131907284,0.188269585,0.048038591,0.171631306,-0.179146737,0.172230721,-0.041465566,0.065340713,0.074870765,-0.158202067,0.368162334,-0.055995401,0.045769308,0.182655379,0.166688934,0.268499136,-0.162044287,-0.173657805,0.282268614,0.053346116,0.033013314,0.272704631,0.057556752,-0.178712264,0.308938146,-0.200790212,-0.100985304,0.140624329,0.331475317,0.056258544,0.285319209,-0.715673625,-0.510402024,0.050906025,0.169664338,-0.027406596,-0.183247909,-0.237150252,0.138518572,0.231529102,-0.261270911,0.187238246,0.297079593,0.275648832,-0.002809667,-0.090603843,0.155891716,0.224127918,-0.083797641,0.081243686,-0.081276335,-0.101094961,-0.109509356,0.218103275,-0.148141295,-0.657187045,0.174144834,0.230472282,-0.074588373,0.425469875,0.260313809,-0.069637559,0.133177713,-0.268604904,0.182482958,0.011764032,-0.618540406,0.294452161,0.579955637,-0.453313082,0.178115696,-0.235088602,0.1574063,0.108152226,0.070916899,0.002481323,0.311026484,0.353334874,-0.092454836,0.02949886,0.743102133,0.015981702,-0.323968023,0.317263663,-0.364826471,0.122246921,-0.081234932,-0.349028021,-0.051570579,-0.382841736,-0.115369886,-0.330238253,0.094672725,-0.411988109,-0.053949524
butterfly,0.007527242,0.09958303,-0.277342051,-0.201259643,-0.457408339,-0.519892454,0.293574303,0.060343832,0.301107317,0.689897895,-0.436377466,0.415259928,-0.212755799,-0.471244693,-0.107623704,-0.246292591,-0.282368451,-0.548193932,-0.236486733,0.163604736,-0.3712219,0.2096131,0.039146267,-0.042738333,0.450659186,-0.252799928,-0.211448953,-0.45054251,0.155695707,0.018101336,0.122261807,-0.304141879,0.161411911,0.03241194,-0.844403863,0.126068681,0.528445899,-0.221080825,0.272590667,-0.763639331,-0.208517,-0.136282459,-0.217614636,-0.395254552,-0.10697528,0.078476086,-0.05624608,0.448912621,-0.279943079,0.402473152,0.685033441,-0.365444124,-0.103625022,0.374343902,-0.168173313,0.193413168,-0.200337157,0.002906188,0.360548258,0.020007642,0.196888402,0.409969896,-0.253478974,0.100438774,0.168262154,-0.027349187,0.033277839,0.588979423,0.235233828,0.238174915,-0.258201271,0.100099199,-0.336424232,-0.09759663,-0.034088418,-0.100769602,0.223257378,0.509391129,-0.268773705,0.112087153,-0.552131772,0.262720466,-0.534284472,-0.169254631,-0.038598608,0.109993979,0.511859834,-0.523281574,0.066816673,0.183322951,-0.084776342,-0.209685132,-0.35433808,0.067347139,-0.076049596,0.358067334,-0.138445541,-0.826782107,0.274941802,-0.129037917,0.133998394,-0.118801445,0.315306365,-0.208361477,0.335923821,-0.09587682,0.230848655,0.20868662,0.124531075,0.644270837,0.015960326,-0.032204133,-0.316790193,-0.095865868,-0.075101703,-0.369473964,-0.243824258,0.409318537,0.360477448,0.135986894,-0.152361259,0.602156222,-0.459637344,0.149348512,-0.368213087,0.425901949,-0.006401318,0.269616216,0.193464309,0.040009465,0.194621205,-0.032357525,-0.440636277,0.348444581,-0.039610203,-0.38895914,-0.254510283,-0.387025505,0.546459198,-0.585933208,-0.580696881,0.194373012,-0.28468731,0.675892234,0.154112861,0.360348493,-0.018607615,-0.199228749,-0.133553997,-0.423332602,0.139779881,-0.140365586,0.258816779,0.517512143,-0.254506826,-0.393116564,0.160928279,0.414656132,-0.035100099,-0.087681688,0.438297182,0.043684758,-0.243907258,0.124985047,0.069289319,-0.124675095,0.002232017,0.044891383,0.528150856,0.33160156,0.00755798,0.171531558,0.602429748,-0.375405282,-0.152573243,0.118842274,0.658866107,-0.061402828,0.126845196,-0.170967683,0.100411154,-0.310136139,-0.043485034,0.107773453,0.278091997,0.065005869,-0.035016172,-0.156471565,-0.002052079,0.324545115,0.366295367,-0.277633488,-0.172858402,0.062489457,-0.42243135,-0.124364704,0.045334004,0.186152592,0.075458817,0.249231741,-0.263176858,-0.101940461,-0.301188469,0.034517393,-0.207042336,0.334968418,-0.218425617,-0.078799725,-0.371836096,0.327860564,0.23273097,0.297758996,0.614814103,0.507315934,-0.238385171,0.283091426,0.06272196,-0.462503701,0.364857733,-0.096442863,0.585839987,0.33678633,0.360195726,0.323609531,0.027722772,0.428920984,0.205852613,-0.173243523,0.209617808,0.06665004,-0.332638323,-0.021913407,-0.277256668,0.006487628,0.337184697,-0.125249803,0.047315031,-0.748412848,0.145704001,-0.091177203,-0.193878144,-0.351957947,-0.286806554,-0.166640118,0.643379152,0.224987611,0.234029129,0.602092683,0.221285611,0.433950126,-0.276291937,0.172835618,-0.156284213,-0.037145346,-0.1023544,0.119423956,0.035603873,0.071832649,0.328571886,-0.598568916,-0.441610426,-0.238771304,-0.121546201,-0.097265348,0.036122698,0.215164661,-0.181898519,0.106588058,0.396919757,0.243068397,0.589981437,-0.431716651,0.246273249,0.497132331,-0.083116956,0.463407278,0.162538856,0.07642664,-0.033370659,0.236612082,-0.027444623,-0.034412343,-0.187433347,-0.041250356,-0.40992555,0.185982123,0.487509757,-0.145334885,-0.597074866,0.534564555,0.203828856,0.260470927,-0.025416128,-0.086534284,0.252793759,0.253706038,-0.374307007,-0.564427197,-0.177374095,0.407374293
cat,-0.283296555,-0.087230057,-0.162987143,-0.329228759,-0.156390071,-0.507080793,0.192266628,0.321221888,0.324195713,0.059700828,-0.038716551,0.158487052,0.010459722,-0.086006843,-0.105023965,-0.344659269,-0.128122017,-0.002920645,-0.158454478,-0.026521819,-0.217776105,0.098075002,0.379766464,0.258330494,-0.174268186,0.072683126,-0.60972321,-0.187239707,0.357386976,-0.045747288,-0.028799606,-0.366471976,-0.640410125,0.001567927,0.062132705,0.158904791,0.504843771,-0.034209803,0.031888049,-0.191215396,-0.26244691,0.050741494,-0.101970896,-0.180953726,-0.236618459,-0.005730175,-0.196187347,0.471121371,-0.200731516,0.236106023,0.405917048,-0.411037803,-0.486608595,0.031454705,0.312349647,0.257558703,-0.324398577,-0.245542198,-0.33873108,-0.143309996,0.308729202,0.656827748,-0.086737901,0.088414006,0.138274834,0.184810385,-0.363594502,-0.043328624,0.680817783,0.258734137,-0.043067954,0.057904627,-0.391238689,0.008731062,0.036559265,0.055106778,-0.13560681,-0.303631634,-0.062319916,-0.167216331,-0.382549107,-0.228201628,0.005389172,0.237142906,0.022630794,0.309385449,0.192282945,-0.075579479,-0.320815206,-0.409542024,-0.268580496,-0.05819289,0.276230067,0.23670736,-0.100336127,-0.058817487,0.006324308,-0.038392175,-0.016422505,-0.146535888,-0.279431969,-0.103936203,0.050174065,0.031313602,0.086908638,-0.050398614,-0.05684147,-0.151629671,0.015676569,0.582493246,-0.358549565,0.154649541,0.067987017,0.242030412,-0.021321902,-0.055510428,-0.285321295,0.388017744,-0.130544469,0.233783484,-0.0040158,0.409768701,-0.351084113,-0.007192061,-0.041868269,-0.084702037,-0.256707102,-0.006174076,-0.179471582,-0.482994229,0.41859147,-0.028531745,0.064229354,0.235274404,0.009999765,0.022502508,0.095520668,0.38826856,0.282471955,-0.047332238,-0.181476861,-0.108744197,-0.336242408,0.237140864,-0.110539421,0.01458832,0.266080439,0.259232581,-0.348410815,0.018226873,0.231351107,0.015405892,0.482855886,-0.1713994,-0.095721863,0.091815695,0.466538221,-0.000768634,0.127284795,0.017631125,0.243770272,0.060413308,0.374842316,0.162140697,0.295682609,-0.075761043,-0.22768113,-0.232757568,0.175350234,-0.101980746,0.23101078,0.278346449,0.314935952,0.196071476,0.031574555,0.224231943,0.345431119,-0.143897548,-0.012195704,0.047299534,0.417509019,0.012459376,-0.128331915,0.146544293,-0.013959916,0.337642938,-0.12121468,-0.042282097,0.039451826,0.088285044,0.445174843,0.019675119,0.107598782,-0.147802174,0.126696825,0.15777947,0.067461826,0.162070319,-0.036295656,0.166308358,0.227966413,-0.06199808,-0.11011605,-0.082477167,-0.076906011,-0.173682228,0.155643925,0.167824537,-0.093302682,-0.074433193,0.09329766,0.013798758,0.159710273,0.397575498,-0.111485459,0.232487604,0.297142744,-0.224055633,0.05688379,-0.046164773,0.086128175,-0.201561466,-0.30482766,-0.010873779,0.078742281,0.252234787,0.419089854,0.009400004,-0.083449416,0.317133963,-0.37882337,0.182877541,0.15170157,-0.037541006,0.361759543,-0.197959736,0.084294751,-0.064150952,-0.029471647,0.277332962,-0.251149684,-0.005574022,-0.116323464,0.082136966,-0.394419163,0.086425021,-0.070591852,0.435930103,0.186436236,-0.03464552,-0.208123013,0.16052711,0.221589521,0.194314599,0.120778561,0.424831837,0.055736769,0.134770587,0.18958883,-0.081693172,-0.180485904,-0.372559249,-0.08011698,0.047212694,0.302702218,0.3375431,0.279381216,0.046272334,0.116930008,-0.085652523,-0.078112796,0.08875291,-0.034622092,0.125684053,0.074800253,-0.166072696,-0.034036577,-0.025521018,-0.056602065,0.058749367,0.625137568,0.009955761,0.068332098,0.031261668,0.136787608,0.010814079,-0.334218413,-0.199920192,0.13770923,0.246122211,0.586146295,-0.261065066,0.282546788,0.054584868,0.058093723,-0.182547987,0.024631234,-0.51015687,0.100664973,0.181167364
coral,-0.27899003,-0.190982953,0.212828025,-0.460198313,-0.080227546,-0.371816397,-0.459750295,0.068278186,0.025372505,-0.361479968,-0.029959081,0.295970857,-0.058640957,-0.026440259,-0.205199525,0.098647617,-0.019831739,-0.2083406,-0.195287839,0.729320168,-0.162014931,0.293938458,0.055642217,0.038810987,-0.240058467,0.236360028,-0.015772777,-0.659664989,0.441026896,0.100347593,0.265882522,-0.458916575,-0.637073517,0.088426776,-0.013829459,0.117989242,0.968008459,-0.189875335,-0.092043884,-0.484751701,-0.054488484,0.007334352,0.453400999,0.166953757,-0.331891716,-0.162926257,0.325158745,0.363404036,0.057224803,0.248909771,-0.271105438,-0.545822978,-0.06818267,0.212527335,-0.218404695,0.128568783,-0.266935021,-0.683556139,0.07796713,-0.12835604,-0.024320915,0.326659292,-0.274013728,0.509268582,-0.014896834,-0.203468159,0.112158418,0.547113359,-0.054907281,0.174828172,-0.306302637,-0.221577644,-0.002076841,-0.492082685,0.104818657,0.249188989,-0.181078404,-0.183745578,0.391114622,0.120490931,-0.152638167,-0.38832137,-0.070077851,-0.0478159,-0.193449423,-0.420513749,-0.026800515,0.221155658,-0.267890453,-0.211065486,-0.249621287,0.387303054,0.027967414,0.063307546,0.213223845,-0.440305918,0.017348614,0.14912504,-0.089295089,0.275580972,-0.373505414,0.079129659,0.162581801,0.081256084,0.11124219,-0.00145579,0.080528021,-0.52843833,0.164948314,0.040127754,0.263518542,-0.032499496,0.388560057,0.174129769,0.228645489,-0.318862438,0.093416706,0.199580655,-0.065889068,0.13030538,-0.28239879,-0.447502077,-0.226030439,-0.768170655,0.028807079,-0.04639649,-0.055977233,0.029513747,-0.050433028,-0.561626494,-0.008546208,-0.093929514,-0.599325836,-0.303964019,-0.160683081,-0.229664445,0.152695343,0.341689616,0.134704232,-0.231930912,-0.278310984,0.210053071,-0.20326966,0.300602287,0.065268166,0.160196975,0.232546777,-0.244630784,-0.111248724,-0.314208031,0.197674364,0.459548682,0.17462334,0.405267924,-0.144009665,0.137772337,0.077008538,0.485489637,0.047386058,0.155956611,-0.220080316,-0.470369965,0.161391422,-0.812962413,0.152809054,0.167451754,-0.038800173,0.320670187,-0.157254368,0.177569494,0.016602404,0.0921489,0.064490676,0.178155482,-0.497775435,-0.017814886,0.290089786,0.447850794,0.266903698,-0.363982171,0.295854241,0.101973683,-0.121397875,-0.019770313,0.320947498,0.196045339,-0.070177741,0.046365287,0.149213359,-0.228268534,-0.183564469,-0.084841214,0.339933455,-0.317362458,0.170943499,-0.181933284,-0.152000502,0.001129969,-0.274010867,-0.110608459,-0.031160621,-0.172552451,-0.071536697,-0.395784408,-0.035533231,-0.061306801,-0.082744718,-0.027791815,-0.16884163,0.432361752,0.2437886,0.037552379,0.310144454,0.123080052,-0.274075806,0.075336687,0.231181994,-0.225848645,0.433346123,0.041931957,0.368622035,-0.341088325,-0.283302933,0.100242339,-0.066270232,0.165581182,0.145076782,0.024234815,-0.056219693,0.077604912,-0.095588781,-0.135746583,-0.286882907,0.477129787,0.712145627,-0.062983125,0.015365744,-0.087621078,-0.000736118,-0.6862275,-0.474642783,-0.325820804,-0.49215579,-0.165040836,-0.089018337,0.203234628,0.1981785,0.150465772,0.153369695,0.012353955,0.125540987,0.181856871,-0.282015651,-0.027430668,0.195031434,0.340515018,0.012621291,0.203110933,0.257519364,-0.271596789,-0.001691669,-0.176225424,-0.290510058,-0.292660177,-0.075991295,0.198638514,0.137837589,0.060613766,-0.459212512,-0.051617172,0.312618792,0.271438628,0.17847912,-0.137014389,-0.022049878,0.392964154,0.019168114,-0.512423038,-0.051728353,-0.143849492,0.184845597,0.135698006,-0.090209797,0.360692769,-0.03730607,0.452944994,0.394070953,0.079409048,-0.897600889,0.097674534,-0.008042706,-0.216415405,0.393887013,-0.27295348,0.070365049,-0.186799332,-0.28697437,-0.48625806,-0.011036265,-0.359014779
crocodile,-0.059696209,-0.678201318,-0.279149234,-0.085957453,0.000249953,-0.645741642,0.123593964,0.338820726,0.382518589,0.010453621,0.103185281,-0.016434772,-0.325154603,-0.015713152,-0.098199017,-0.300825059,-0.429045409,0.230460659,0.047779307,-0.304929972,0.076003954,0.353199631,-0.273953199,0.130346999,0.365543574,0.450610369,-0.356749326,-0.430040032,0.200658843,-0.137782216,0.136344805,-0.180959091,-0.209167898,-0.144089907,-0.125060156,0.18827422,0.348206997,-0.039966401,-0.244433329,-0.264061034,-0.81862247,-0.162905902,-0.199283019,-0.169496089,-0.005226777,0.38473472,-0.125688553,0.189935565,-0.487243593,0.035812154,0.064191669,-0.037666209,-0.482920915,-0.041360028,0.155925751,0.29031831,-0.418543667,-0.254958332,-0.285879672,-0.235796779,0.373387903,0.558306515,0.218272209,0.636614442,0.140660003,0.053113014,-0.533941209,0.251744688,0.486257404,0.010221778,-0.191714689,0.325139612,-0.314632595,-0.216332361,-0.302976638,0.067342982,-0.243578389,-0.258570224,0.124675721,0.379215151,-0.798031092,-0.340516835,-0.414599985,-0.386654556,-0.147083521,-0.326560616,0.536245108,0.140962973,0.170718923,-0.314551383,0.266195983,0.150761202,-0.043710638,0.071477994,-0.031812273,-0.321038008,-0.080428302,-0.046124406,-0.202976823,-0.114188388,-0.42776975,-0.152349353,0.136614591,0.056108262,0.213652998,0.116626017,-0.484987825,-0.730103374,-0.481907517,0.280539155,-0.128457904,0.229876846,0.242118433,0.29767397,0.12633954,-0.091992341,-0.344696909,-0.250971645,0.376379818,0.211979449,0.313752264,0.204905033,0.012116038,0.076377884,-0.160437331,-0.001266727,-0.097290762,-0.002144821,-0.207934976,-0.076072738,0.627374232,-0.557977855,-0.079101242,0.079622559,0.06953273,-0.306604266,-0.085377172,0.097442351,-0.359983236,-0.37089318,-0.439202815,0.029624086,-0.119658008,0.413652658,0.076027639,0.400781363,0.215047002,-0.003175208,-0.175484389,-0.607511699,-0.498308659,0.468682736,0.254571766,0.183997527,-0.0212647,-0.183711603,0.667465866,-0.09856762,-0.044396333,-0.48782894,-0.015807182,0.229375094,-0.007833176,0.207794994,-0.118204825,-0.270169795,-0.114528298,0.198012337,0.011898122,-0.43261528,0.269942403,0.248821601,0.197121769,0.096909486,0.141849339,0.225044668,0.376507372,0.109652378,0.176663399,-0.151087001,0.545874357,0.018928057,-0.038858492,0.142360345,0.510612845,0.322863162,-0.174199149,-0.097344451,0.095080599,0.033428233,0.04697717,0.020442996,-0.085403167,-0.022633761,-0.067581914,0.10958948,0.442809492,-0.136411637,-0.092366889,-0.427285075,-0.037954397,0.193389833,-0.13312301,0.190656379,-0.23338069,-0.200514659,-0.060684767,0.050511893,0.222550079,-0.099807501,0.155703858,0.166092142,0.444690019,0.47395584,-0.20394218,0.422151625,0.123579815,0.039831683,0.071156554,-0.412430257,0.42726779,-0.139229968,-0.213767141,0.003452362,-0.261742651,0.084877476,0.334197074,-0.4504641,0.288161159,0.397059798,-0.331958503,-0.10602358,0.469935745,0.086228251,-0.071096912,0.375116915,-0.356130481,0.393253744,-0.034697466,-0.015969843,-0.365224719,-0.128126428,0.110632479,0.016064731,-0.09738256,-0.527141809,0.039185442,-0.161029473,0.583503425,0.190459222,-0.324097097,0.409373999,0.443014354,0.147833735,-0.031745642,0.471271366,0.120573387,0.487335563,-0.239696681,-0.385903209,-0.195530534,-0.162591279,-0.039860949,-0.060445648,0.201396361,0.106496796,0.341679245,0.30926764,-0.122791499,0.11561735,0.06735865,-0.058592144,0.242520481,0.277112961,-0.110697001,-0.018134179,-0.014616169,-0.504279673,-0.132417411,0.312906742,-0.123336211,-0.175607324,-0.159235299,0.297496438,-0.056107741,0.143636644,-0.047526754,-0.25542134,-0.061939128,0.356896371,0.201520801,0.168131515,0.284551978,0.213037208,0.414317131,-0.074307717,-0.542866349,-0.257694274,0.061174706,-0.28747192
crustacean,0.053113382,-0.108324058,-0.251797736,-0.182398945,-0.756055951,-0.14373073,0.261218935,0.831705034,0.179697961,-0.001429071,0.274353832,0.472741663,-0.375847816,-0.371630222,-0.117792442,-0.067569844,-0.201446652,-0.623139501,-0.272447199,0.64500922,0.019589994,0.264714748,-0.268979013,-0.16087462,0.033976369,0.364038825,-0.061926242,-0.026210941,0.058625642,-0.101809382,0.370011955,-0.480449796,-0.04700407,0.151179448,0.302812964,0.712679267,0.318197072,0.16830501,-0.126318708,-1.061786413,-0.508339345,0.033918813,-0.019967726,0.088895597,-0.227649331,0.052491136,-0.069495983,0.280310154,0.336956084,-0.101604611,0.098975874,-0.434584498,-0.21114777,0.149362728,-0.181628883,0.087552764,-0.100095861,-0.020458626,-0.056907255,-0.465362251,0.256025642,0.584427416,0.0318694,0.014863304,0.4752011,-0.079767242,0.030349454,0.316764653,0.378195673,0.361120075,-0.120528318,-0.23010014,-0.050562393,0.144515857,0.286111414,0.16784142,0.075695597,-0.801462889,-0.395873755,0.124246955,0.042479254,0.11895974,0.256903201,-0.204118416,-0.228158921,-0.540845215,0.540223718,-0.408500731,-0.050921664,0.12905176,0.37089175,0.059289906,-0.387414932,-0.046553109,-0.125317708,-0.131254211,0.111929268,0.020190734,0.139114439,0.196691051,-0.598279893,-0.251618773,0.344281346,0.101324573,0.106828474,0.473599851,0.102157161,-0.482495695,-0.255520642,0.70663178,0.293997049,0.650254607,-0.331057161,0.17088896,0.152676165,-0.251986027,-0.589144111,0.144672826,-0.371503592,0.000441066,-0.077703975,-0.409435958,-0.569345355,0.080564983,-0.020471187,-0.309562087,0.195528522,0.019813245,0.156349957,-0.393749475,0.668090641,-0.088116907,0.201564014,-0.900636315,-0.086588271,-0.385545611,-0.011093385,0.036644679,-0.101626351,-0.078035131,-0.797737181,0.163272604,0.231577337,0.208102509,0.191474214,0.039203554,0.621476352,0.365821302,0.270146132,-0.707678795,0.165261418,0.023053845,0.477351964,0.119556546,0.301618695,0.053126119,0.110042468,0.472285092,0.113217995,-0.301192403,0.136268824,-0.257731199,0.045968492,-0.419180185,-0.108776383,-0.176524177,0.041384213,-0.285959333,0.380885899,-0.284662873,0.495765835,0.363527834,-0.325255901,-0.051343333,-0.431992203,-0.063967071,0.32890597,0.449688375,0.429874837,-0.128520146,0.228748396,0.118974589,-0.150921986,0.110836148,0.299643636,0.115993887,-0.405171305,0.463413894,0.501960754,-0.250566781,0.314551294,0.225588068,0.282617956,-0.197448164,0.530508578,0.57106024,0.206662402,-0.348901421,-0.185687691,0.131620914,-0.349418581,0.144206122,0.276686013,-0.246240109,0.136394396,0.246433303,-0.201508865,-0.425605744,-0.361850381,-0.085122421,0.243578821,0.305194795,0.265725046,0.672502816,-0.077595517,0.350012422,-0.362053543,-0.231267765,0.337787569,-0.205741361,0.27295059,-0.204965934,0.283439666,-0.100145914,-0.007515732,0.066595875,0.162631825,-0.072147712,-0.395600438,0.685652375,0.094206177,0.111439191,0.069949999,0.087808639,0.437628925,-0.20974268,-0.125025973,-0.603074491,0.149269849,-0.560029984,-0.45100835,0.044023093,-0.304674119,-0.178496435,-0.227486864,-0.182345837,0.492024869,0.291451782,0.480655164,-0.024073612,-0.168087691,0.294107735,0.327547312,-0.272769541,-0.169808552,0.552833438,-0.023870146,0.249454603,-0.096144356,-0.582258403,-0.40842858,0.211141482,-0.370452136,-0.059281804,0.180761039,0.014153416,-0.177361846,-0.106405362,-0.147475064,0.048601344,0.01916232,-0.468258113,0.610792756,0.323669136,0.058625046,-0.142360881,0.139411822,-0.497662485,0.053431008,0.372108459,-0.386805236,-0.151278153,0.055856731,0.122307688,0.047213882,0.287282348,0.112612993,-0.669387639,-0.103094436,-0.028082989,0.079053104,-0.130328819,0.082898371,-0.05316782,-0.108014859,0.378560662,-0.384286523,-0.17566748,0.249873251,0.17120105
dinosaur,-0.026420217,-0.231488615,-0.464745492,0.153358802,0.11578653,-0.498367906,-0.355710536,0.328154743,0.271725863,0.089974307,-0.428009242,0.424095124,-0.224757805,0.124526545,-0.424546927,-0.258814484,-0.154484928,-0.080284096,0.021346448,0.096494697,-0.075459018,-0.089220777,0.040007357,0.16269277,0.570714295,0.193868101,-0.317740351,0.139100969,-0.102326803,0.130702019,0.268861085,0.105853364,-0.28996709,-0.324312806,0.184199512,0.849555373,0.204941303,0.008763198,0.054027162,-0.375727147,-0.294316083,-0.00176284,-0.347030967,-0.212053329,-0.807445884,-0.014899587,-0.073207416,-0.07572753,0.253131986,-0.16579406,-0.399899811,0.075184479,-0.623099625,-0.085373655,0.160139531,0.173175529,-0.025376357,-0.051379401,-0.369150013,-0.700094521,-0.088008247,-0.010068323,-0.184469,0.435589075,0.536683023,0.482082576,-0.468092173,0.393204629,0.343445778,-0.337221026,-0.492283165,-0.167964146,-0.384320468,0.146103337,0.32003063,0.210360408,-0.202405825,0.173174396,0.098757289,-0.248385608,-0.567340493,-0.237000778,0.038253378,-0.641998649,-0.104785487,-0.69019407,0.501800299,-0.438177824,-0.042698212,-0.182571709,0.290598899,0.194902569,-0.103814796,-0.300522119,0.022785192,0.259983003,-0.100675263,-0.38765195,0.316596538,-0.040668782,-0.923642755,0.265391529,-0.00127681,-0.465744823,0.237797737,0.25610882,-0.568808675,-0.756644905,-0.349463969,0.872292876,0.659689188,0.138105348,0.219355941,-0.294911087,0.176886216,0.040302262,-0.854540884,-0.059123732,-0.284101278,0.161997944,0.461173892,-0.300905168,0.041342732,0.009145239,0.378496587,0.003517993,-0.545582473,-0.333728284,-0.381857395,0.030413941,0.161760017,-0.287526935,0.163484529,0.15409635,-0.061181843,-0.317398846,0.111312181,0.155078486,0.352905631,-0.557678223,-0.614113271,-0.257058114,-0.099133015,0.433394462,-0.006264673,0.312835664,0.059907258,-0.004908772,0.266310334,-0.396928489,-0.200355247,0.039875779,-0.3706716,-0.011678163,0.212140515,-0.118490875,0.385065794,0.443384707,-0.015759224,-0.206952929,0.091442712,-0.296599984,0.322577655,0.146487713,0.19316192,-0.440310895,0.435454041,0.293499589,0.32417354,0.139860645,0.089532346,-0.178690493,0.7371279,-0.324269593,-0.175597131,0.294016212,0.504583359,-0.00922488,0.355864972,-0.22238189,0.558828115,0.018859733,0.076672047,-0.109728575,0.391914964,0.019270631,-0.507805705,-0.161012113,0.362726778,0.001685738,0.095756821,0.213013977,0.013813893,0.153877825,0.016075581,0.555676699,-0.036865346,-0.05126828,-0.143011704,0.301172405,-0.216239423,0.357562393,-0.202911898,0.067522883,-0.068575934,-0.257205755,-0.047880236,-0.296575248,0.014470289,-0.238048017,0.217294797,-0.195799381,0.081809901,0.019771846,-0.069254197,0.147296175,0.231510669,-0.408748627,0.512360156,-0.217914045,0.358426511,-0.106079116,0.29583621,0.391622365,0.073416032,-0.261226654,0.98491174,0.029273391,0.354878008,0.267944604,-0.323748559,0.000266902,-0.03450444,0.116956584,0.027138323,0.126415581,-0.007842528,0.26331678,-0.419305772,-0.277370095,-0.395824283,-0.536222041,0.409742951,-0.006353953,-0.317177117,0.017289756,0.434829175,0.126980379,0.089737602,0.040781219,-0.324615806,0.479464561,0.175258785,0.208295867,0.332474232,0.103048526,0.365371436,0.220837399,0.065567009,-0.160259649,0.079793841,-0.154323921,-0.168326378,-0.317281693,0.425222248,0.615528345,-0.30618307,0.268363088,-0.141733512,0.09050715,-0.398228467,0.162617326,0.299158841,0.027925501,0.243903726,-0.018077958,-0.415280372,-0.21086213,-0.023309985,0.27422747,-0.180235207,-0.00693405,0.208178982,0.509890914,0.453316182,0.154323161,0.156059533,-0.266158462,-0.417351305,0.07426551,0.221893325,0.06995061,0.308624208,-0.030276569,0.118203193,-0.109082207,-0.155808821,0.08306089,-0.475230634,-0.57550168
dog,-0.235648587,0.144882798,-0.174022332,-0.051619038,-0.011899943,-0.287990451,0.129452914,0.161016673,0.06243661,0.029656809,-0.124302767,0.156668454,-0.264310926,0.265416175,-0.238638952,-0.130712762,-0.428535342,0.011961889,0.127874509,0.227552086,-0.299051464,0.356061637,0.292604297,-0.006445518,-0.136629015,0.042263348,-0.409061372,0.112335891,0.079528019,0.096383944,0.120132945,-0.166010529,-0.294427216,-0.140417263,-0.076762743,0.128492743,0.170867458,-0.158604801,0.208790928,-0.190336868,-0.023427665,0.213759676,0.226295128,-0.145985261,-0.39722389,0.115020722,-0.147973403,0.311429977,-0.046942201,0.118926354,0.207837582,-0.191869184,-0.453327656,-0.172856018,0.179075375,0.233529672,-0.226058096,-0.173958153,0.034811851,-0.2358668,0.164790556,0.371914387,-0.022431655,-0.078856245,0.169089526,0.278805971,-0.213157803,0.102328308,0.64574492,0.246928483,-0.215169579,-0.039198626,-0.332843632,0.171183169,-0.034970015,-0.014174326,-0.174624801,-0.20014286,0.112884708,-0.145238847,-0.62496227,-0.234192967,-0.00816789,-0.276135176,0.072358653,0.019726474,0.3031663,-0.100206658,-0.280525476,-0.411000967,-0.159182146,0.100732453,0.032449502,-0.014633669,-0.073694661,-0.118379295,-0.029141465,-0.228253514,-0.087933354,-0.077683389,-0.18999888,-0.049818214,0.30405879,-0.165654153,0.173736975,0.189261943,-0.028857067,-0.212810606,0.149634868,0.340630829,-0.339331597,0.442584544,-0.088917769,0.382172585,0.190252513,0.051363368,-0.575093329,0.328818232,0.00262527,0.258113921,0.037390288,0.480945051,-0.292813718,0.171886355,0.163451746,-0.414576501,-0.345053554,-0.018981369,-0.461408675,-0.424886495,0.154072642,0.008219176,0.048940659,0.102047466,-0.026521502,0.191090226,-0.047292616,0.213080391,-0.001465363,0.24930574,-0.188599348,0.18563357,0.232346728,0.099807322,-0.10358341,-0.044818841,0.393117785,0.124544457,-0.033062242,-0.255158484,0.006914834,0.066563174,0.176831514,0.271188527,-0.016245166,-0.110916182,0.156331524,-0.090504408,0.492283314,-0.372544646,0.004660687,-0.042228285,0.099983893,0.29182899,0.108139038,-0.166808635,-0.052749492,-0.252733946,-0.013929226,-0.020911122,0.160352975,0.461915314,0.321473688,-0.111246854,0.183307678,0.422001243,0.167040616,0.007002998,-0.197895423,-0.07326562,0.523616076,0.102826037,0.079485565,0.170091361,0.186681867,0.702240348,-0.433242768,0.168585762,0.138507783,-0.028639298,0.516507387,-0.014740583,0.169347957,-0.090256959,0.135486171,0.374519825,0.338829309,-0.084274672,0.116970591,0.262307554,0.36524117,0.200113028,-0.423024684,0.104170561,-0.290713906,-0.080952317,-0.065878324,-0.155845881,0.009798445,-0.116059974,0.138865069,-0.009509673,0.219275311,0.106108442,0.043288857,0.059751097,0.204008043,-0.516546786,-0.205809891,-0.033549175,-0.218791723,-0.224737301,0.22287564,-0.114469737,-0.249710172,0.100818478,0.678291738,0.076519541,0.31525749,0.28438738,-0.308715641,0.207781464,0.056434602,-0.029221,0.118968666,-0.367870688,0.086242691,-0.088921487,0.114602461,0.019900752,-0.395001173,-0.048752341,-0.02674656,0.031478189,-0.388844728,0.138986245,0.084578723,-0.017978968,0.249546021,0.030294627,-0.36904341,0.233528808,0.331647605,0.233234629,-0.02173811,0.24704057,-0.074802458,0.237189174,0.249295965,-0.135481521,-0.054653738,-0.171650305,0.151640698,0.02163784,0.362071484,0.054461502,0.280044764,-0.277886361,-0.07348951,0.266388178,0.025309863,-0.137572542,0.137090027,0.208925113,0.103764363,0.137220189,-0.169227317,0.13284111,-0.186541826,0.011294974,0.428750962,-0.040756468,0.0071833,0.035196289,0.124742091,0.034531955,-0.371931046,-0.124362797,0.198659867,0.017806504,0.228561789,0.139101416,0.353865653,0.191051334,-0.046118092,-0.128213122,-0.045737047,-0.291850239,-0.131037787,-0.128669396
echinoderms,0.025655597,-0.533109844,-0.46055001,0.061115887,0.074052811,0.048348442,0.044133738,0.132117882,-0.270118743,-0.069718555,0.12589398,0.149263039,-0.119648278,-0.597225666,-0.304274619,0.234630823,-0.022530926,-0.171210572,0.006339523,-0.009977521,0.245751008,0.268965006,-0.324075043,-0.278091341,0.248332337,0.792415619,-0.04988005,-0.023490809,-0.273479015,0.170023456,0.354520291,-0.190615833,0.143327668,-0.327435076,0.532444715,0.363035262,0.800558209,-0.093055621,0.128173202,-0.742163956,-0.159420967,0.211516231,-0.06871374,-0.169545814,-0.079770833,0.646197021,0.070658691,0.302824289,0.019321155,-0.472714901,0.390133888,-0.089055859,-0.281834811,0.137825042,-0.037164256,0.591422141,0.049156174,-0.246815771,0.624002218,-0.495943815,-0.483023822,0.455464035,-0.38455084,-0.159241825,-0.14100419,-0.105999589,0.111345895,0.739894032,-0.090945289,0.369018674,-0.137957603,-0.168698117,-0.318780869,-0.427473217,0.590292931,0.460378975,0.058756035,-0.352162272,-0.53364712,0.582694173,-0.041955248,0.025171494,0.130506232,-0.285944074,-0.230956808,-0.713426113,0.219621167,0.395206153,-0.5499143,-0.156605408,-0.050303493,-0.239691153,-0.176069289,0.071769632,-0.267326146,-0.153919473,0.073021226,-0.215274051,0.060283881,0.525553167,-0.744735599,-0.407132715,0.482542783,0.468703657,0.15950121,0.525617301,0.114612736,0.138565093,-0.805804491,0.884183407,-0.020467618,0.543594241,0.138189569,0.392008573,0.366956085,-0.533818364,-0.154855087,0.374876022,-0.655959785,0.296585709,0.371458322,-0.770855129,-0.219142199,-0.376209885,-0.125730455,-0.34064725,-0.203835309,0.049583789,0.201895952,-0.086736284,-0.049446531,-0.515687287,0.116862543,-0.755794406,-0.061131451,-0.130140588,-0.119357534,0.106358275,0.077864863,-0.60613656,-0.814384401,-0.270554751,-0.024269445,0.428832829,0.242802978,-0.083977923,0.365220398,0.249203771,-0.19044745,-0.618234336,-0.442771196,0.427698702,0.297334492,0.140899956,0.116020873,0.060899071,0.043836076,0.755203962,0.390561193,-0.098086968,0.245713159,0.046134345,0.420328259,-0.751118958,-0.146252617,-0.017402407,0.228419527,0.003140367,-0.073588133,-0.181039333,0.237572297,0.023135243,-0.26473394,0.55170691,-0.017770348,0.123551629,0.536539555,0.371112585,0.387695432,-0.358336776,-0.057198055,0.177335933,-0.078059822,0.081943907,0.000483049,0.13901791,-0.414145887,-0.012862719,0.35027644,-0.395576596,0.472032338,0.250369549,0.447542995,-0.220393881,0.294172525,0.166647181,-0.39296633,-0.279085994,0.077274203,0.352283567,-0.339960217,-0.049774114,-0.054845121,-0.731620133,0.320995808,-0.018510452,0.047551565,-0.342265874,0.065972552,0.037522878,0.269164115,0.433916092,0.443089813,0.109844252,-0.002928101,0.210215181,-0.138279155,-0.138372496,0.643452406,-0.43167609,0.309993207,-0.006524355,0.240179554,0.185725719,0.675336897,-0.001509415,0.151671633,-0.364106447,-0.292655498,0.709763527,-0.191671476,0.251151949,0.008090926,-0.209335804,0.634860098,0.158508152,-0.969946623,-0.159163624,-0.159473106,-0.419591874,0.130768061,-0.182836369,-0.325994402,0.042774361,0.022934763,0.383472681,0.281127214,0.199039236,0.174468741,-0.045235548,-0.197548792,0.174674317,0.128513306,-0.578374386,-0.424600154,0.220753804,0.441928476,0.179919675,-0.093360029,-0.470665008,0.072317839,-0.317410678,-0.564661264,-0.04289943,-0.038991254,-0.101659134,-0.28100276,-0.231773257,-0.433275968,0.25752753,0.040969793,0.417131454,0.761933386,-0.116726048,0.173030987,0.011305952,-0.55224812,-1.057281971,0.206780747,0.477105141,-0.722507715,0.219253108,-0.143257543,0.413700432,0.310848683,0.671766341,0.506090701,-0.640231967,-0.2489779,0.18916522,0.092852555,-0.316711783,0.392717302,-0.097631745,0.344456196,0.155873239,-0.41904074,0.032520179,0.975904346,-0.384413242
ferret,-0.325868309,0.071273312,0.072547801,-0.098077796,0.031724021,-0.442032099,0.244466901,0.316289395,0.377230734,0.396496981,-0.451883733,-0.227115989,-0.218571171,-0.068472072,-0.077719025,-0.471290618,-0.554570258,-0.512777269,-0.260546774,-0.202072218,-0.100757897,0.245101079,0.053156957,0.156171292,0.040538065,0.364316702,-0.214010701,0.178921625,0.39900431,0.021692216,0.365502656,0.088269606,-0.357313007,-0.061734833,-0.052998301,0.166858375,0.488647521,0.020653037,0.232754663,-0.311999649,0.078684606,0.078488484,0.220329836,-0.01670273,-0.32313168,0.142670572,-0.63508153,0.522339582,0.234760806,0.304009229,0.239052087,-0.302714437,-0.564268827,-0.06590762,0.288288146,0.086511701,-0.182430938,0.217201367,0.043122247,-0.016336886,-0.057203196,0.633703232,0.320540726,0.28079167,-0.435734153,0.006693773,0.031873953,0.358068824,0.493826777,0.064524345,0.224478304,-0.400644422,-0.302115768,-0.047118403,0.092107877,0.193633541,0.133593798,-0.124116391,-0.028868584,0.086276658,-0.213882312,-0.185192645,-0.163540304,0.12811178,0.260356784,-0.07200367,0.175641313,0.526130199,-0.149000332,-0.037689928,0.037804313,-0.675895452,-0.211708978,-0.011664447,-0.195103675,0.004244512,-0.140561432,0.085776143,-0.208671212,-0.092272647,-0.42153886,0.07164786,-0.090947837,-0.105985329,0.369986713,-0.027480813,-0.207452491,-0.187531918,0.205663309,0.521069407,-0.210079804,0.143453375,0.094652772,0.536468863,0.146026969,-0.154285029,-0.314922571,0.10963171,0.03848492,0.004926451,-0.143004954,0.843869984,-0.049780227,-0.215113267,-0.102924787,0.179489046,0.03814451,0.466417462,0.094633713,-0.337095886,0.294939876,0.453553021,-0.111927144,0.285169393,-0.098282263,0.170522705,0.186374485,-0.155644938,0.241783336,-0.117113136,0.004506541,-0.016458226,0.216839209,0.193654552,-0.050084133,-0.230788186,0.13326405,-0.247456729,-0.000686237,-0.153430045,-0.126782805,-0.038539693,0.456311762,-0.006096629,0.142012551,-0.259368539,0.036808692,-0.028393786,0.286549568,-0.148983508,0.19290939,-0.306382239,0.469541132,-0.097358286,0.162805393,-0.105195872,-0.108012922,0.025162758,0.242818505,-0.052452672,0.328998864,0.314671189,0.3475914,-0.132513955,0.071045205,0.437615782,0.294606328,-0.694455087,-0.094559789,-0.221406415,0.360701114,0.194977731,-0.264989495,-0.227578983,0.576040387,0.322111398,0.078983866,0.161146998,-0.136496618,-0.457211047,0.222109646,0.243935794,0.154898152,-0.082940914,0.35884729,0.240527734,0.079166844,-0.048894506,-0.034006823,-0.160437226,-0.103716634,-0.551156878,0.010521606,0.123692594,-0.408563554,-0.018943544,-0.238640055,-0.121620081,0.393319368,-0.032346319,-0.041287869,-0.085206673,0.264395803,0.281169593,-0.01182965,0.444008619,0.499475092,-0.252123743,0.207327515,-0.310904741,0.064577542,-0.405299366,0.155758202,-0.145272434,-0.076242648,0.15065746,0.203483328,0.023725919,0.024315573,0.250908226,0.235561118,0.293631464,0.312220991,0.036177289,0.342974454,0.056757532,-0.207441986,-0.074033961,-0.695600152,0.167353362,-0.244465902,0.249508634,-0.656577647,0.267190367,-0.261456728,-0.00122451,0.123726875,0.527801335,0.105440296,-0.103865579,-0.224929735,0.356334805,-0.055908434,0.021549361,-0.007352903,0.404362321,-0.420610666,-0.144413933,-0.157456174,-0.063347466,-0.090191185,-0.085791498,0.281698048,-0.361894578,0.485000163,0.172349736,0.164753705,-0.053274509,0.391811281,-0.102055855,-0.307709455,0.119832501,-0.12192414,0.24562636,-0.430225909,0.324408799,0.356116265,-0.224741235,-0.397684306,0.039243162,0.236530453,0.234821364,-0.039876249,-0.12372113,-0.078604564,-0.479569376,-0.261835396,-0.160604879,0.326786637,0.015490569,0.429714143,-0.404038787,0.691961884,-0.362969041,-0.09809804,0.175946549,-0.013683587,0.183655426,-0.192972288,-0.213642031
fish,0.087375201,-0.263268292,0.080469854,0.108559348,0.093120351,-0.385408878,-0.048853308,0.081362307,0.173839137,0.063869298,-0.071628071,-0.108158678,-0.387470156,-0.315528929,-0.014041569,-0.141417384,0.007210211,0.046266291,-0.220614418,0.429783642,-0.049733017,0.326356262,-0.136253372,-0.0183452,0.15907234,0.374280542,-0.074558921,-0.306906253,0.079209328,0.084158868,0.615404844,-0.300929368,-0.01297734,0.032871176,0.064803042,0.437169671,0.277419657,0.013461892,-0.467929721,-0.200622573,-0.230034262,-0.235795632,0.192944661,-0.035588901,-0.368930817,0.160019159,-0.106471226,0.32290706,0.054030795,-0.341724247,0.150667667,-0.322898269,-0.333732486,-0.003674094,0.129525155,0.121283837,-0.282937586,0.032589778,0.340500683,-0.274079561,-0.028323254,0.010607841,-0.064759411,0.204332605,-0.011111341,-0.145060927,-0.020887924,0.052064605,0.109466471,0.084641479,-0.847280145,0.154363632,-0.253063321,-0.181187809,0.169332594,-0.003307179,-0.023688288,-0.448783815,0.122752585,-0.200113952,-0.46345526,-0.016649626,-0.174695805,-0.416658461,-0.201848045,-0.073150851,0.431215584,-0.254389107,-0.268819153,-0.135375649,0.107570127,0.105094299,-0.583654523,0.119049065,-0.488922238,-0.13391231,-0.226404801,-0.356650472,-0.349440932,0.254157782,-0.217135698,0.145180076,0.133185089,-0.152065098,0.112700872,0.243713975,-0.064293541,-0.346813619,0.457854182,0.337203175,-0.255100906,0.555130541,-0.045245368,0.22169964,0.673022628,-0.361758143,-0.269710898,0.232483789,-0.345934421,0.003159777,0.202431962,-0.003709882,-0.215507507,0.003030953,0.13175647,-0.158635497,-0.035679828,-0.215985119,-0.027345145,-0.206766754,0.178160295,-0.085987248,-0.244294077,-0.377829403,0.0898766,-0.067015685,-0.25635621,0.004296287,0.102187686,-0.002856665,-0.037251808,0.059203081,0.115200169,0.299967885,0.114210635,-0.19534716,0.466014117,-0.009607477,-0.044468455,-0.256346226,0.242151305,0.209697649,0.242397502,0.116145834,-0.187014341,-0.151102304,0.352346569,0.253753394,0.494274467,-0.469996572,0.266439676,0.124315806,0.058223285,-0.02196651,-0.075465046,-0.110832766,-0.274307162,0.170802876,-0.021437872,-0.437095135,0.560320914,0.210299075,0.1823311,-0.209227324,-0.252059728,0.107154824,0.383520305,-0.030631758,0.026083689,-0.206812024,0.226313084,-0.145223126,-0.003012514,0.25824374,0.560677528,0.272627383,-0.300879359,0.248014331,0.382179439,0.077442184,0.25715211,-0.124372907,0.342319429,-0.208841845,-0.014973395,-0.108368583,0.108958758,-0.072999924,0.011299725,-0.089403644,-0.118415289,0.051300768,0.117149785,0.06280566,-0.030486973,0.166616768,0.016768493,-0.311090648,-0.134753421,0.047373541,0.052701656,0.041680232,0.466544241,0.22966896,0.324865907,0.170968875,0.316229463,-0.202347279,0.49642539,-0.45002532,0.159953147,0.110320263,0.098755263,0.030015191,-0.364761055,-0.151962802,0.266372651,0.049447887,-0.01274276,0.125136793,-0.178179964,0.047132943,0.136992022,-0.009762462,0.362231761,-0.128026873,0.119275011,0.109737009,0.200461298,-0.125497937,-0.230522156,-0.334228128,-0.393526405,-0.053027216,0.219681501,0.282054812,0.118202284,0.120637849,0.295464844,-0.024813507,0.096827947,0.096411683,0.510105193,0.032173131,-0.199052647,0.37839511,0.095648602,0.366784513,-0.259428263,-0.220610827,-0.164748505,0.008979064,-0.036885083,-0.029393962,0.000700562,0.005296769,0.03352318,0.170777708,-0.463731021,0.129299,0.203383863,-0.145156428,0.661038876,0.284184963,-0.234099537,-0.116181627,-0.485029817,-0.595155239,-0.440221816,0.240940392,-0.250449479,0.216501802,-0.017997501,0.07288184,0.107121155,0.348446637,0.304686815,-0.231444389,-0.138698176,0.249235451,-0.06391447,-0.122584425,0.269003063,0.092479788,-0.070785038,0.029123323,-0.742667615,0.086802945,0.093804248,0.014133816
flower,0.201404124,-0.098047979,-0.22888051,-0.268220812,0.224698395,0.081686616,0.096619762,-0.545923829,0.45158118,0.213606119,-0.002145489,-0.122667767,-0.180799142,-0.034921411,-0.130474254,-0.036182448,-0.378065139,-0.021596815,-0.164589226,0.289646924,-0.659323573,-0.00456912,0.005870909,0.267385393,0.389372677,0.025729517,-0.012923704,-0.135669798,-0.150450677,-0.00257154,-0.206872359,0.099968404,0.024691971,0.206726328,-0.389912814,0.406130075,0.357965708,-0.338430941,-0.204429373,-0.874635458,-0.4104563,0.074960113,-0.106570549,-0.249087662,-0.621715486,-0.095136933,-0.083581693,-0.120908193,-0.113304064,-0.212106481,0.011193668,-0.54560101,-0.165258512,0.021935113,0.132957533,0.303899914,-0.028408874,-0.013439607,0.246066853,-0.257611632,0.460585207,-0.123371646,0.213456362,0.041860532,-0.229214191,0.049751382,0.222991496,0.236607805,0.092776552,0.42370224,-0.589308202,0.294304132,-0.176760271,-0.040123053,-0.086014636,0.569209695,-0.152243868,0.366586655,-0.056307189,-0.387609392,0.021176832,-0.332922637,-0.51613754,-0.049400724,-0.110246748,-0.076048486,0.40038386,-0.123748593,-0.033418655,0.151085481,-0.442917287,0.419445336,0.027465042,-0.248557314,-0.280303508,-0.297972918,-0.013371976,-0.011409678,-0.076687165,0.182887241,-0.177526847,-0.343366951,0.324370742,-0.521944463,0.064457551,0.029608393,0.314471453,-0.023574844,0.082108542,0.303260237,0.061740194,-0.133215174,0.248057663,0.268849641,0.256379604,-0.14957732,-0.244099364,-0.26012525,-0.151110038,0.572794318,-0.440696806,-0.213111117,-0.226414859,-0.151825428,-0.317145318,0.135179341,-0.300370485,-0.248572618,-0.071197785,-0.104695171,0.088962227,0.039057683,-0.303798974,-0.052721042,-0.403147846,-0.389592409,0.200983614,-0.262718737,0.236958966,-0.093480326,-0.566462219,-0.250604033,0.416351497,0.569002926,0.269820869,-0.003745839,0.489811003,0.057634778,-0.129340738,-0.267838448,0.206494004,0.091651455,0.087920807,0.167786554,-0.234585673,0.056548938,0.261952668,-0.000740391,0.024421982,-0.335074484,-0.039438579,-0.0889441,0.01669793,0.27316004,-0.348878622,0.06591738,0.029531442,-0.005869976,0.175110564,0.000724012,0.059362512,0.138146445,0.631392598,0.099046163,-0.437405109,0.110456012,0.570697248,0.020528078,0.145976976,-0.41301173,0.227097616,-0.325847059,-0.200266227,0.25727424,-0.049047127,0.015479296,0.138909265,0.04870208,-0.173168823,-0.483378083,0.245730579,-0.11550574,-0.197957575,-0.008457774,0.091526315,-0.035477106,0.068131641,-0.192681506,-0.112190381,0.214396238,-0.159706712,-0.231403708,-0.099377893,0.09006355,-0.085055806,-0.012859566,-0.028838959,0.305565596,-0.135905042,-0.109661281,0.29313916,-0.142623827,0.056321103,-0.308573991,-0.201269522,-0.064261936,-0.258142054,-0.254535645,0.457591295,-0.0433749,-0.149355099,-0.13346687,0.161266282,0.072829418,0.248143852,0.246745571,-0.191449374,-0.117411509,0.320303857,0.414256632,0.029355362,-0.04644772,-0.01219893,-0.152455896,-0.092815436,-0.083889544,0.002489809,-0.085047007,-0.270181298,-0.119046554,-0.360319436,0.06533926,-0.144791648,0.205431595,-0.17264384,0.106138535,0.278552294,0.118437737,0.282528132,0.457509756,-0.356147975,0.435087681,-0.00086795,0.069799483,-0.287306696,0.210538581,-0.158850357,0.231631488,0.123389833,-0.140588239,-0.058874022,-0.19029218,-0.010974113,0.233462259,0.701186061,0.23192808,0.100811198,0.377421826,-0.195963278,0.31695652,0.309299856,-0.151254579,0.377002269,0.419155747,0.052680034,0.129791752,-0.208236888,-0.162763789,0.017701486,0.011904807,-0.150004759,-0.0712808,-0.065882392,0.367155612,-0.19661361,0.066446573,0.233259648,0.196193039,-0.109910257,-0.02935905,-0.099950582,-0.037631217,0.559066057,-0.346667796,-0.112009168,-0.204767868,-0.312710643,-0.395681679,0.134567037,0.297128767
frog,-0.456727266,0.004331144,-0.762966752,-0.615565538,-0.466152996,-0.591479361,0.309198588,0.398743838,-0.152593896,0.218146801,0.100312807,-0.155765489,-0.446430057,-0.3517479,-0.254215688,-0.569923282,-0.228955209,-0.00146519,-0.356909394,0.517016292,-0.376338512,0.408153921,-0.116628818,0.048148945,0.09754549,0.085750647,-0.269308597,-0.196444348,0.347155988,-0.350885242,-0.137329012,-0.393100113,-0.335960001,-0.180124357,-0.223317921,0.573124766,0.370311975,-0.255567014,-0.100507252,-0.075284228,-0.272123933,-0.237351328,-0.21795845,0.288435221,-0.324716657,-0.006450885,-0.039321225,0.237972796,-0.361328244,-0.042411923,-0.206364349,-0.226231456,-0.962073147,0.062779039,0.032536756,0.003017104,0.248753279,0.011183103,0.32911256,0.009462112,0.682425916,0.515130043,0.077910013,0.239560768,-0.237065867,-0.061205927,-0.209594578,0.692785621,0.438218981,0.30060792,0.159905344,-0.589914799,-0.241777956,-0.270707667,0.159271464,0.181536123,0.017212518,-0.110572606,0.40335542,-0.096261345,-0.420436084,-0.03139957,-0.612723351,0.039641142,0.134252056,-0.099537022,0.50316751,-0.36185053,-0.423382998,-0.034308832,-0.021984937,0.32434538,-0.298688501,-0.538983583,-0.35289368,-0.005313798,0.149409369,-0.279599905,-0.472827703,-0.264163315,-0.27642411,-0.092802934,0.485985458,-0.072064012,0.217805073,0.521513104,-0.205191433,-0.723285794,0.037778784,0.419487745,0.14050658,-0.04822927,0.508539259,-0.149219528,0.359086543,-0.209743813,-0.016388347,-0.315222472,0.333353311,0.18948473,0.002672756,0.605559528,-0.796411932,-0.43837142,0.07823427,0.515052319,-0.148530886,-0.080862179,-0.118142702,-0.226373628,1.130036712,-0.38064602,-0.085132591,0.004662037,-0.009676695,-0.092579067,-0.153138414,-0.075198472,-0.038917162,-0.302662015,-0.638829708,-0.00245058,-0.068343788,-0.288149893,-0.175029069,0.472044677,0.73778075,-0.373423547,0.047351997,-0.250225931,-0.405416757,-0.026372731,0.702953637,0.095194146,0.122814521,-0.394130528,-0.003758028,-0.09768723,-0.063481688,-0.185350701,0.201481536,0.362438619,0.22877571,-0.205087155,-0.017756071,-0.193123713,-0.357228339,0.371491045,0.275585324,0.263633132,0.622733653,0.443003565,0.134115681,-0.02997368,0.099842221,0.195280537,0.404984236,0.112065181,0.50608784,-0.092877232,-0.01744304,-0.114110693,-0.001332394,0.204973876,0.333800882,0.708816946,-0.330332249,0.126943946,0.263527602,0.160035416,0.369459838,0.130789593,0.431330502,-0.438299924,0.345570356,0.195542946,0.262005389,0.034107663,0.008372807,-0.180530638,-0.126560718,0.089925379,-0.077001467,0.125340521,-0.163342208,-0.032579515,0.172494411,0.105378374,-0.606224239,0.046659473,-0.024183271,-0.185679391,0.37193495,-0.11479485,0.014356053,0.186511502,0.093577459,-0.274237514,-0.244685933,0.006077017,0.376854181,-0.007598423,0.634432793,0.149645582,-0.217334688,-0.126057789,-0.16748853,-0.201997504,0.171422347,-0.27745676,-0.187486261,-0.280644894,-0.338719398,0.253827959,0.147758931,0.156898186,0.033088997,-0.436407536,-0.116453685,-0.258746415,-0.102562398,0.076156899,-0.160894945,0.060623839,-0.202705503,0.023191769,-0.018229268,0.78324002,0.053867359,0.397869319,-0.096598618,0.642289937,-0.115611717,-0.094941102,0.191302672,0.187383115,-0.00338417,0.144500792,-0.06146659,-0.365842462,-0.210043207,-0.143452883,0.164685965,-0.107546054,0.060263962,0.232551247,0.012012101,-0.105720475,0.395397156,0.15997988,0.026523998,-0.543712914,0.087138906,0.667191029,-0.144985139,0.090702862,-0.282842964,-0.332420051,-0.414442569,0.375092059,-0.174218997,-0.183330566,0.072609074,0.125623643,-0.001559064,-0.113368422,-0.080741584,-0.267175734,-0.098716848,0.104724668,0.463188767,-0.134794354,0.111055836,0.237701029,0.079983227,-0.051321708,-0.261142761,-0.177452534,-0.419897348,-0.179957107
fruit,-0.006806987,-0.012976886,-0.119080156,-0.321800351,0.163674071,-0.001477143,0.013621078,-0.446540385,0.140999392,-0.084711038,0.289015651,0.071909182,-0.047084194,0.139531597,0.286315203,0.08913973,-0.378050089,-0.128650174,0.223897576,0.033315212,-0.174731523,0.482451439,0.025442991,0.318885744,-0.021155523,0.247833684,-0.078907035,-0.316272169,-0.177353278,-0.330786407,-0.155085877,-0.052314084,-0.061060686,0.198354304,0.061585896,-0.180459559,0.110347793,-0.09403614,-0.278132707,-0.487816334,-0.37783131,0.036010962,0.220904097,-0.033319015,-0.752904177,0.03160774,-0.148398891,0.08318302,0.00038399,-0.242994651,-0.01207169,-0.272424757,-0.035474036,-0.203370631,0.254729211,0.758080959,-0.226922259,-0.241368696,0.222874641,-0.570616007,0.216279954,-0.107285254,0.293091744,0.025277901,-0.056922678,-0.486672729,0.110869184,0.410609782,0.275321037,0.513050914,-0.58997637,-0.031099992,-0.113024712,-0.579926193,0.151794851,0.326145083,-0.101194523,-0.141707584,0.129800156,-0.544269264,0.035945639,0.214147672,-0.44179976,-0.1846371,-0.006620533,0.129396141,-0.081249669,0.139493316,0.019867942,0.152649775,-0.48051095,0.163003623,-0.195959762,-0.492620826,-0.260660619,0.187753513,-0.003826075,-0.1263244,-0.218976259,0.042625282,-0.414151907,-0.198931038,-0.251614004,-0.287955791,-0.043820929,0.07385242,-0.059686046,-0.358482808,0.141256198,0.356496006,-0.234994993,0.125859022,0.274753094,0.289127409,0.449367195,-0.332807899,-0.208304077,-0.025093291,0.307099074,0.20009467,-0.343307436,-0.13638702,-0.051395368,-0.270710975,0.151895687,-0.298612505,0.426613182,-0.33044675,0.051773272,-0.173195451,-0.07562495,-0.196326375,-0.345556706,-0.099352933,-0.353845835,0.112875596,-0.219541073,-0.318510979,-0.035444338,0.307660073,-0.2451877,-0.334774673,0.450555623,0.399823159,0.213431656,-0.329354107,0.74901104,0.437865943,0.001016221,-0.033942949,0.148880035,0.110705458,0.605699658,-0.014741143,0.169313878,-0.346864462,0.332227647,0.372576952,0.123567246,-0.338943601,0.233979315,-0.008115702,0.154672146,-0.27916497,0.364431113,0.378457248,-0.414856672,0.181973353,0.252548546,-0.077626653,-0.031557225,-0.490662098,0.329877883,-0.060900133,-0.196901143,-0.114719123,0.431150645,-0.1912653,-0.420985222,-0.776956856,0.164028347,-0.508783817,-0.183105558,0.031752165,0.152129978,0.146178037,-0.409504116,0.162145212,-0.033099309,-0.308011055,0.207075208,-0.185973093,0.059937503,0.052963909,0.1061683,0.043969039,-0.057218786,0.079367474,0.105122648,0.294489294,0.171707392,0.204221457,-0.041567225,-0.094768986,-0.045740996,0.273386389,0.320686013,-0.394470811,0.050938275,0.009894776,0.334079623,0.058338784,-0.175704524,0.363367796,0.156323001,-0.024367189,-0.296801895,-0.171595812,0.253149986,-0.634581387,-0.093206301,-0.166612566,0.241475344,0.12014991,0.050781213,0.131655201,0.075484559,-0.291700363,0.33535856,0.150582716,-0.186990291,0.03937757,0.071959533,0.243342295,-0.29052183,-0.337915391,0.009097116,0.087969325,-0.265208989,0.048026729,-0.326446384,0.054057747,-0.242231324,0.522966385,0.168108791,-0.149667203,0.145947933,0.26990366,0.319822341,0.366965115,0.158477202,0.126383901,-0.095338859,0.190083757,-0.154105395,0.05179878,-0.172538757,0.349394232,-0.04336337,-0.437719852,-0.114271544,-0.144671023,-0.225178942,-0.036516014,0.321354926,0.18636331,-0.053389598,0.209450006,-0.033579681,0.604769588,0.21756731,-0.463622421,0.516279697,0.518712819,-0.174057141,-0.003988303,-0.550758421,-0.284276009,0.029633313,0.232639521,-0.586345553,0.019688794,-0.04234878,0.17861411,0.248975039,-0.242130086,0.205200225,-0.275001764,-0.456188291,0.128375992,-0.033038266,0.091770425,0.514186978,-0.199267283,-0.460532159,-0.237030089,-0.216611654,-0.210708529,0.532713473,0.00072226
fungus,-0.116276547,-0.374250531,-0.414179504,-0.075468235,-0.875904441,-0.117070176,-0.003224839,0.119130932,-0.890238047,0.040251177,0.696090937,0.075459801,0.084813483,0.159174234,-0.140910357,0.439645886,-0.51742065,-0.165904611,0.059107162,0.707716823,-0.518653154,0.070061013,-0.005757361,0.078330599,0.419725955,0.275382429,-0.062853679,-0.222838432,-0.164424419,-0.278736591,-0.116797134,-0.298569441,-0.014663949,-0.002445245,-0.133239031,0.430588812,0.323388249,-0.140457124,-0.081682138,-0.60984236,-0.602912426,-0.12181554,0.30282101,0.107041068,-0.137147769,-0.312824845,0.169943243,-0.052284654,-0.169798702,-0.1570483,-0.015590216,-0.519482613,-0.357558012,-0.18020086,0.033217646,0.676440179,-0.291537344,-0.230818689,-0.227467105,-0.236236274,-0.02933337,0.211735159,0.036212683,0.468413025,0.104340568,-0.824302495,-0.083095685,0.448431402,0.475846797,0.233444974,-0.09327171,-0.763106346,0.017145274,-0.207392529,0.111642621,0.280079871,-0.112160712,-0.114491098,-0.277852893,0.316511571,-0.148008958,0.239469409,-0.385526866,-0.291386425,-0.248648375,0.199143529,0.186423302,0.136077702,0.132393256,0.172794059,-0.489178509,-0.081228808,-0.172999829,-0.365829229,-0.409544647,-0.072575197,0.264780402,-0.034576189,0.527244329,0.189518899,-0.731231272,0.000346423,0.174398348,-0.349965483,0.454620868,0.012124895,0.275981277,0.288539737,0.107951038,0.457251281,-0.145659894,0.654302359,-0.27824074,-0.138273105,0.611444175,-0.317922384,-0.110943943,0.022652222,-0.037722997,-0.212177694,-0.190367296,-0.031893183,-0.548202336,-0.219850019,0.234179303,-0.381218046,0.132974565,-0.221689433,0.298173964,-0.99806267,0.308042079,0.196593955,-0.112506457,0.028767569,-0.24737975,0.094306521,-0.001028012,-0.274121404,0.436365515,-0.44239831,-0.557606161,-0.000673682,0.193766043,0.185503423,0.269606441,0.071123421,0.865829945,-0.134267464,0.44986549,-0.080705464,-0.14290899,0.106441744,0.336408019,-0.012260146,-0.133083299,-0.04037318,-0.089203656,0.336959392,0.417532742,0.14381288,0.04980937,-0.042239439,0.473874003,-0.358925551,-0.041550297,0.396849811,-0.201495647,0.156017736,0.247531682,0.258088976,0.284130186,0.056671925,0.579589784,-0.444405079,-0.387619436,0.064356804,0.527275622,0.357044429,0.249622673,-0.918813467,-0.239910558,0.244765177,-0.019063508,-0.018346392,0.089292519,0.232941195,-0.359230042,-0.080678061,0.266078979,-1.125717044,0.239312217,0.192024603,0.069138803,0.086663321,-0.074063316,0.004763636,0.075140081,0.495782137,-0.002245259,0.213503733,-0.099410228,0.295886993,-0.36656487,-0.479564726,-0.14387165,0.58021158,0.04485349,-0.137492672,-0.205227166,-0.021234231,-0.406947494,0.049105853,0.148511201,-0.003089927,0.286703646,0.470308214,-0.087824412,-0.686401427,0.382855773,-0.327481061,-0.132608831,-0.38295877,0.13476713,0.253221452,0.312925041,-0.227665737,0.048264693,-0.098252922,0.181152731,0.164160177,-0.0667779,0.286873281,-0.104993999,0.467298001,0.20365034,-0.375593215,-0.522948384,-0.425190002,0.056592982,-0.244681135,-0.533276618,0.098936036,-0.387955308,0.114566818,-0.430076897,-0.021240316,-0.003198829,0.551994026,-0.035105307,-0.026319046,-0.400896966,0.399251908,-0.084593892,-0.00784046,0.250374138,0.090865463,-0.348116577,0.375886589,0.137324229,-0.107895561,-0.029536588,-0.049296476,-0.301828951,0.26189214,0.132288069,-0.144574344,0.334043831,-0.249790415,-0.054984346,0.069991827,-0.313370705,-0.08045163,0.182350308,0.39810279,0.20959945,-0.244983569,-0.578976691,0.037212815,-0.112799756,0.464019239,-0.582963347,-0.181766674,-0.129775301,0.377196163,0.465800941,0.342839181,0.426000863,-0.323488683,-0.331691802,-0.326192826,0.03803866,0.17880635,-0.088062391,-0.002394252,-0.18457076,-0.231118858,0.067179106,-0.192328468,0.323044002,-0.171171978
hog,-0.336356074,-0.287085116,0.088775113,-0.376363307,0.007028669,-0.355085373,-0.066798151,-0.098286092,0.227164462,-0.009545894,-0.177094206,0.036342081,-0.229646742,0.284322172,0.073780805,-0.483929902,-0.011780327,0.133974373,0.030533081,0.226275086,-0.223302424,0.207608461,0.35911113,-0.160112619,0.042420242,0.036144082,-0.481578737,-0.17137903,-0.142140806,-0.249935061,-0.232452735,-0.602044344,-0.325900644,-0.046544645,-0.207927033,0.133064851,0.287518114,-0.051060539,0.184856087,-0.205224201,-0.343962491,-0.151227787,0.319243073,-0.08092729,-0.288288534,0.139316127,0.047154024,0.518363595,-0.302258074,-0.067807816,0.50019443,0.18694815,-0.638761938,-0.096678436,0.303686619,0.360822678,-0.331583977,-0.390417874,0.178966776,-0.16714175,0.193282902,0.375950098,0.222772986,0.295996636,0.007223654,0.09088134,0.047336549,-0.001118657,0.658197224,0.09673173,-0.394060493,0.14138101,-0.355405241,-0.133077279,0.233113617,0.453758299,-0.161892518,-0.086328775,0.220224321,-0.092602491,-0.536112666,0.039111577,0.068315499,-0.198488206,0.204066157,0.123520344,0.070557155,-0.16894637,0.181324184,0.085639559,-0.26893568,-0.103561938,-0.103141598,-0.096301556,-0.347202748,0.03857173,-0.154857576,-0.289792269,0.007971095,0.100248404,-0.089604177,0.076735273,-0.280432224,-0.283468813,0.409150869,0.268683612,-0.155911073,-0.275891125,0.088105455,0.275259018,0.084572934,-0.135654911,0.036028933,0.306605935,0.583630383,0.02126701,-0.226772413,-0.058365006,0.157745376,-0.006263801,-0.039764576,0.374325782,-0.034981027,0.276257396,-0.279752851,0.026888218,-0.059179123,-0.108733326,-0.313679963,-0.273848027,0.211016431,-0.121781088,0.163311303,-0.193622693,0.256880611,0.26345095,-0.196627855,0.369218022,0.076577708,0.144599766,-0.286859363,0.158798993,-0.056621116,0.054307535,0.076914147,-0.590964973,0.375758767,0.148301527,-0.024260066,-0.255634755,-0.249737263,-0.259260118,0.360088438,0.402621239,-0.124245651,-0.09733063,-0.067826599,-0.048271045,0.136006817,-0.059452843,0.0888258,0.480147988,-0.215856954,-0.085096218,0.305585325,0.155033827,-0.166937754,0.011100505,0.212987855,0.029439721,0.309361041,0.198908135,0.180933744,-0.175277367,-0.301869482,0.190793008,-0.21549958,-0.210377395,0.229658887,-0.358402491,0.50724566,-0.013975726,-0.41824159,-0.216040924,0.418408424,0.439916432,-0.16676569,0.424213111,0.085146986,-0.187486157,0.46115914,-0.188776404,-0.019698944,-0.475093633,0.492231011,0.038205419,0.004234162,0.083235957,-0.256540656,0.224509165,0.39984417,0.04427008,-0.19531548,0.270486742,-0.492144853,0.30185762,0.06776379,-0.327010483,0.035199221,-0.348916799,0.243779853,0.10462939,0.374781877,0.190409273,0.168787554,-0.04152216,0.023042398,-0.021983482,0.174416348,0.034105733,-0.14326562,-0.199529588,0.157932311,-0.119407639,-0.241114497,0.066137135,0.155376986,-0.195569202,0.31091094,0.354965717,-0.074248299,-0.291475624,0.322567999,0.291988134,0.117906317,0.202760369,-0.258999467,0.065720968,-0.087091036,0.189686909,-0.05489058,0.058127709,-0.379921108,-0.049832638,-0.289663047,-0.193769887,-0.035870451,0.098403014,0.047642175,-0.245693758,0.195195243,0.166217908,0.217513055,-0.064815544,-0.119383417,0.509776115,-0.517352641,0.293201417,0.125429064,-0.088374056,-0.014760647,-0.260940373,0.485114902,0.071557872,0.431781799,0.161497027,0.065704912,-0.223763764,0.09274561,0.008601731,-0.0701591,-0.18316105,0.32264927,0.094551705,0.057009529,0.372683942,-0.408170015,-0.079573832,-0.325009525,-0.139283627,0.202076927,0.108825147,-0.228738323,-0.093321651,0.433752626,-0.176483989,0.084208511,-0.323535085,-0.109254971,0.043063268,0.160666436,0.155850425,0.558873117,0.279316753,-0.086137213,-0.163299769,-0.660762012,-0.181600824,0.091238461,0.009785304
lizard,-0.198818386,-0.074563541,-0.097636394,-0.560619652,-0.47550568,-0.007601988,-0.148967087,0.504367054,0.142547354,0.098471478,-0.130061477,-0.045845188,-0.373874754,-0.115672588,-0.084404238,-0.450260729,-0.185485169,0.035782855,-0.642408013,-0.13659206,-0.233631268,0.555629134,-0.192034408,-0.357006043,0.343791395,0.451635808,-0.527742922,-0.555235445,0.060244914,-0.037396707,0.048155744,-0.058519095,-0.430128634,0.17186451,-0.089802504,0.630618513,0.762531936,-0.157366127,-0.286021799,-0.598956883,-0.264627635,-0.258660078,-0.401924133,-0.11810112,-0.605991662,0.630752325,0.122357771,0.539890528,-0.124721214,0.025173048,-0.032878734,0.145907715,-0.865842462,0.269520521,0.154906303,0.570395947,-0.118252017,-0.236896113,-0.169332191,0.106143877,-0.02546679,0.312715501,0.316682786,0.758307815,-0.066600762,-0.19659324,-0.334045619,0.698586285,0.283743113,0.285891652,-0.213550285,-0.073248237,-0.432855844,-0.153859541,0.063195519,0.014140596,0.218105182,0.095062353,0.038616098,0.231142774,-0.617364049,-0.475525081,-0.350825697,0.05228474,0.389001817,-0.484487593,0.277126998,0.430538207,-0.10045211,-0.113486826,0.316450238,0.163770288,0.079315133,-0.068672948,-0.049821567,0.464335203,0.043266524,-0.27842927,-0.130188823,-0.164175749,-0.32662335,-0.221363977,0.212841436,0.019823454,0.323895514,0.30157733,-0.130487025,-0.7817384,-0.033535976,0.324149072,0.054311287,0.464126647,0.134550035,0.165146112,0.606598079,-0.099126361,-0.35757333,-0.20933187,0.153064057,0.311122417,0.021017879,0.516072929,-0.295788348,0.132865742,-0.126968205,0.408858091,0.202878103,-0.458935559,-0.380040348,0.140710369,0.30262503,-0.657676995,0.232323229,-0.253854632,-0.068231106,-0.210628748,0.152818173,0.148071408,0.229939222,-0.610683918,-0.42148912,-0.215704545,0.00654159,-0.08434023,-0.177485123,0.200684339,0.416718841,-0.178326368,0.296133071,-0.078377366,-0.36059624,0.169792026,0.175949469,0.076503612,0.408055753,-0.056498919,0.378895611,0.398234665,0.060712077,-0.087945946,-0.121891737,-0.391762882,0.279170305,-0.015187602,0.027537234,-0.421785355,0.078052342,0.471412033,0.475981623,0.05142292,0.228891745,0.659054518,0.39971295,-0.212352112,-0.164718121,-0.090506479,0.645123303,0.186381966,0.052440971,-0.134116694,0.129463896,0.202021912,-0.135759026,0.311807483,0.7921682,0.348969251,-0.230778828,0.088035367,0.16726841,0.018424449,0.275486946,-0.365914881,-0.193232,-0.172916353,-0.033071466,0.340921342,0.087877631,0.080577433,-0.180159107,-0.328849494,-0.056078445,-0.098218285,-0.141424313,-0.028113147,-0.427827805,0.00903948,-0.298671246,0.064001597,-0.164968684,0.127592936,0.267768532,0.056924339,0.354720443,0.288387954,0.166711137,0.098638251,-0.199452162,-0.153249919,-0.057020724,0.343427777,0.231909677,-0.155880138,-0.026925975,0.137745857,-0.067074619,-0.243113488,0.186791331,-0.457093388,0.215335727,-0.241354987,-0.633714139,-0.041201737,0.043948654,-0.072798938,0.269927949,0.589817166,-0.270719051,0.023826081,0.183007926,-0.172782227,-0.364187896,0.013308902,0.106407434,0.032136358,-0.244557247,-0.075088941,0.183983251,0.256194413,0.207071587,0.003279797,-0.438711762,0.09842971,0.302174747,-0.042403452,0.344081938,0.155448377,0.055900566,0.244787127,0.091413647,-0.343968838,0.006751498,-0.016281405,-0.065096006,0.11193455,0.05733487,0.36032635,-0.304400831,-0.063716166,-0.110255823,0.107077755,-0.134620011,0.107145429,-0.072288297,0.050954744,-0.041361742,0.193392754,-0.466571599,-0.238666758,-0.173057273,0.232392088,0.125891834,0.032083943,-0.071727097,-0.181092143,0.388540566,0.036219731,0.278053224,-0.495148271,-0.335184127,0.075929917,-0.005898991,0.395108193,0.293725014,0.381322891,0.204951704,0.059336126,0.149831474,-0.13223727,-0.048815172,0.25835222
marine mammals,-0.01647939,-0.919861972,-0.17847012,-0.203136772,0.174104422,-0.462999374,-0.108856611,0.324006051,0.562624335,0.206612304,-0.776171565,-0.019186193,-0.293065131,-0.385763139,-0.271760225,-0.525264561,-0.330265254,-0.75244391,-0.680439293,0.394948184,0.419173092,-0.068827689,0.16191563,-1.156582475,-0.404794246,0.55853337,-1.063703537,-0.33506164,0.510236382,0.707858384,0.619437814,-0.543962836,-0.42467016,0.49262619,0.313332438,0.116642751,0.699712276,0.83836937,0.268632114,-0.814360976,-0.114073858,-0.926584721,0.324340165,-0.058675807,-0.157759532,0.622701824,-0.427524149,0.419757634,-0.671973586,0.086143233,0.627157569,-0.322902769,-0.073491275,-0.082612239,-0.096874215,0.376079917,0.15173237,-0.505280733,0.028887641,-0.6608513,0.078265138,0.78276825,-1.070453644,-0.0810716,-0.191562593,0.2332194,-0.119101845,0.748040199,0.498288989,-0.639290392,0.119217776,-0.579152405,-0.01637364,-0.485151261,0.975878417,0.554887891,0.403410494,-0.973286271,-0.117250286,-0.021494754,0.146133959,0.160079852,0.118706308,-0.415712237,-0.782045007,0.079669945,0.400832653,-0.170571446,-0.350825906,-0.197023332,0.710085452,-0.339899391,-0.403302878,0.262506694,0.211938098,-0.442500651,-0.713456333,0.696362734,0.016445324,-0.024808533,-0.270497352,0.29632923,0.367917567,-0.313683331,-0.229011625,0.160164446,-0.347142547,-0.096299477,-0.275929928,1.189908504,-0.498082638,0.909526646,0.211801454,0.070113994,1.476756692,0.032492492,-0.677204311,0.680958688,0.587229609,0.847735643,1.191132426,-0.280745834,0.173222229,-0.419750869,0.219884589,-1.317836165,-0.591143191,0.381860971,0.201595381,-0.10601785,0.434211671,-0.741976559,-0.297300011,-0.784375966,-0.036524631,0.587141514,-0.301464826,0.437212557,0.271635234,0.021196211,-0.555844426,0.368746847,-0.049800958,0.574239135,0.323328257,0.439094424,0.307358265,0.12134251,-1.209781766,-0.661990821,-0.192878202,1.100399017,-0.001025098,1.51079011,-0.645859063,-0.315347642,0.333018184,0.507457316,0.474882603,-0.797850132,-0.888925374,-0.111949153,-0.079335593,-0.182466343,-0.421004236,-0.645085394,-0.073064521,0.493962973,0.014024675,-0.313990474,1.107291341,0.117073178,-0.682303905,0.028941751,-0.278963745,-0.28756997,0.265695363,-0.518499494,-0.106193587,0.415392965,-0.160327002,0.698642373,0.157201186,-0.368357569,0.096858464,0.166764408,0.151824817,0.677751243,0.833681166,0.131565943,0.989603996,0.297485769,0.242418826,-0.452009529,0.72644347,-0.063223049,-0.239358157,-0.404650062,0.109293371,0.471838504,-0.328110397,0.128811985,-0.462672144,-0.645243526,0.261624843,0.186454177,0.151732504,-0.622966111,-0.504919529,0.43951714,0.58833313,0.340984702,0.45381248,0.205516413,0.175886557,-0.243248314,0.534368277,0.166065812,0.536188006,-0.675647557,0.280423403,-0.55920738,0.588325322,0.377159357,0.077235073,0.285484552,1.062614918,0.599742293,0.0037524,0.65590924,0.422524989,-0.101923555,0.39689821,0.084608085,-0.117224231,-0.529414952,-0.140609682,0.135460109,0.166751191,-0.553668618,0.05762412,-0.476763368,-0.376590192,-0.020832041,0.171452701,-0.017455442,0.580941796,0.150098354,-0.28936702,-0.483830452,-0.655412853,0.592179894,0.841533661,0.469121933,-0.385729283,0.431238919,-0.919775605,0.535146117,0.224066913,0.625238538,-0.553890109,-0.596269667,-0.544481039,-0.620655537,-0.53301245,-0.102067173,0.329988092,0.169044942,0.304960757,-0.27715534,0.160826534,0.346448272,1.113145828,0.335527509,0.058916155,0.026031725,-0.221239373,-0.840216279,0.174670532,0.327804148,-0.749206483,-0.438137949,-0.30296737,0.564378798,-0.008755026,0.49951911,1.064542174,-0.991004109,0.028043831,0.125828847,0.01187436,-0.616287529,1.034151077,-0.161530942,0.713517964,1.015686989,-0.885556459,0.203773484,-0.044431731,-0.497990191
marsupial,-0.023318449,-0.265243471,-0.485099345,-0.465428263,-0.264798462,-0.587085187,0.382894039,0.55869478,0.259849846,0.319589794,0.3439928,-0.137008995,0.24130334,-0.6913715,-0.292296857,-0.582415581,-0.502653122,0.158069327,-0.263651133,0.245328635,-0.013371447,0.372123599,-0.521845639,0.031412527,0.732938886,0.419565797,-0.148729309,0.267788768,0.280325085,-0.637475252,0.342482537,-0.277316719,-0.394839287,-0.350188941,-0.001574059,0.30754891,0.41277647,0.058349025,-0.10776002,-0.461883307,-0.212425143,0.594393492,-0.166639253,-0.410249531,-0.655707538,0.317002565,-0.125133947,0.535235584,-0.045928091,0.359446108,-0.133489892,0.031174419,-0.466806084,0.386020333,0.214667067,0.415110826,0.054441918,0.030931434,-0.293260872,-0.341302752,-0.252644122,0.41445747,0.002480163,0.174247056,0.002113373,-0.030703019,0.125186726,0.668279827,0.199238986,0.016160311,-0.405486405,-0.49981007,-0.242921248,-0.131324023,0.562992573,0.027090119,0.406443417,-0.593020558,0.088443458,0.286913604,-0.164913595,0.063001022,-0.328239679,-0.519576609,0.410444915,-0.026765456,-0.014578674,-0.288878739,-1.077872634,0.225048065,0.420583159,-0.324079067,0.157551199,-0.565256834,-0.06279774,-0.427073538,-0.039312631,-0.103985734,0.037674427,0.046487425,-0.300071597,0.027694637,0.172188967,0.132383734,0.247823492,-0.168640181,-0.132539436,-0.545084596,-0.606129885,0.93610996,-0.214207768,0.31521076,0.072032772,-0.060434438,0.452150822,-0.232759565,-0.210216701,0.031676307,0.403714776,0.249233097,0.154506043,-0.073466621,-0.180792645,-0.527257562,0.016279705,-0.572133362,0.046977166,-0.391777009,-0.139889598,-0.172019601,0.452103376,-0.735213637,-0.613942564,-0.516630232,-0.301868737,0.454364091,0.210820422,-0.251585871,-0.068787284,-0.374176562,-0.809993863,-0.014915497,0.286782384,0.138412833,0.266831398,0.139893755,0.737767935,0.026133394,0.078388549,-0.427915722,-0.413506001,-0.13720198,0.127060652,0.219729617,0.356235564,0.138069689,-0.029645406,0.562143207,0.125550598,-0.593049467,0.578620255,-0.173654929,0.565977633,0.116826929,0.131072327,-0.06018969,-0.008520134,0.298727185,0.156483352,0.719433784,0.356799841,0.461808234,-0.198480323,-0.01559203,0.321446806,0.592546999,0.686233759,-0.408258617,0.268328905,-0.443139941,-0.080703527,0.031705096,0.123767577,-0.116848305,0.337379307,0.693448365,-0.642008066,0.462786853,0.490755439,0.045937698,0.175296307,0.146439791,0.356085271,-0.08579696,0.245911971,0.106766365,-0.110254742,0.23218742,0.079086185,0.189208567,-0.612794697,-0.192009807,-0.398543447,0.244089872,-0.147716567,0.040514726,-0.081590846,-0.214957535,0.149436429,0.230717033,0.289429784,0.052651037,0.524323046,0.112949528,0.245570138,0.11226391,0.493426681,-0.696866453,0.663442791,0.064367659,0.614539862,-0.601233423,0.124964066,-0.065037109,-0.19093135,-0.314903855,0.609690964,0.03489073,-0.143673688,0.359352708,-0.04205076,-0.41768229,-0.10115955,0.768455982,0.197839811,0.383033186,0.533981919,-0.258716345,-0.162790641,-0.257362217,-0.833935916,-0.170586914,-0.129158795,-0.129719749,-0.107885271,-0.172321156,-0.298610032,0.669679761,0.15873079,0.007545603,-0.397217184,0.037746087,0.572372556,0.060782995,-0.165701777,0.400914133,-0.00897093,-0.422488332,0.110684156,-0.379166126,-0.301933467,-0.443342745,-0.407163888,-0.42862165,0.202860206,0.407020956,0.151776686,0.199989557,0.119675606,0.130649418,-0.207989171,-0.352896482,0.54787761,-0.112412073,0.291379213,0.17233105,-0.233227193,-0.247436032,-0.195983171,0.372772038,-0.170914501,0.009482988,-0.044890251,-0.044074994,0.193215117,0.298141062,0.431710511,-0.071708001,-0.339592218,0.411877662,0.285892725,-0.389160424,0.197730899,-0.093567826,0.344501376,0.319165498,0.144486457,0.006327761,-0.02006573,-0.273609757
mollusk,-0.694973171,-0.297001034,0.057775266,0.942434907,0.288296908,-0.616262555,0.058815639,0.482833534,0.148583055,0.870911837,-0.048653454,0.235407278,-0.771905124,-0.378847063,-1.029215336,-0.366101056,-0.309651524,-0.285200894,-0.725224376,1.076877475,-0.850119412,1.585928202,-0.466473162,-0.46532163,-0.173197493,0.858789086,-0.391833574,0.418613076,-0.258352876,-0.359784275,0.484761983,-0.533204675,-0.200456247,-0.078686848,-0.399859726,0.851997495,0.823247075,0.071100995,0.191633835,-1.370464683,0.177168027,-0.955600798,-0.598260045,-0.373892635,-0.147603646,-0.046764005,-0.281053543,0.843164384,-0.418464452,0.948160231,0.149661452,-0.490081906,0.496223897,-0.349381208,0.163107395,0.968313217,-0.174375787,0.236782476,-0.192530707,-0.476490527,0.327386975,1.228591681,-0.223665237,-0.234998316,1.096625686,-0.483709037,0.622801423,0.292530447,0.50550139,-0.180838212,0.44372645,0.240060166,0.037442073,-0.14672409,-0.352201223,0.148084328,-0.142405346,-0.219845682,-0.027688887,1.383361697,-0.192859486,0.81488061,0.627635658,-0.410611272,-0.409621894,-0.236259639,0.574942708,0.164886221,-0.249246165,-0.031072764,0.47021842,-0.036877263,-0.545119643,-0.797807813,0.647060692,0.468236029,0.435995787,-0.642739415,0.222345829,-0.046690509,-0.870876968,-0.537071347,0.505776048,-0.599015594,-0.563838661,0.559830189,0.209965587,-0.411407799,-0.550516784,0.60333097,-0.088659048,1.160856485,-0.017581873,-0.932060421,0.10973864,-0.776526809,-0.341997951,0.116278343,-0.638330102,0.162269771,0.330777615,-0.409163147,-0.886544764,-0.850129426,-0.666953504,-0.666173697,-0.918786049,-0.486256868,0.732896507,-0.760067821,0.820047498,-0.615122676,-0.395493448,-0.281565607,-0.286158979,0.306639522,-0.744161725,1.005892634,-0.021029044,-1.349299669,-0.723222435,0.68413192,0.062251549,0.937994659,0.347841769,-0.477333993,0.81569016,0.142370924,0.246355295,-0.292189389,-0.541904688,0.801073194,0.383931428,0.958122015,0.202284604,-1.660825253,0.141923308,0.896069527,0.58454597,-0.005057978,-0.423182309,-0.453885347,0.568070173,-0.877242565,0.721038222,0.254529744,0.699920535,-0.145839915,0.037224859,0.325292468,0.287850142,0.747713506,-0.693785191,-0.321125567,-0.719560087,-0.609492064,0.352481842,0.899941146,0.931939006,-0.565234542,0.123025723,-0.197676107,0.045472566,0.144058183,-0.711405754,0.821982622,0.076795377,0.396492749,1.489633679,-0.289840609,0.219792485,0.260389835,1.847001076,0.049121469,1.257165432,0.916702271,0.746231198,0.446255773,-0.811908484,-0.114239618,0.539347649,-0.212282151,-0.903624475,-0.325518042,-0.332858086,-0.131607309,0.302012682,-0.603527784,0.307377368,-0.318889081,1.426227927,0.411435664,0.128326565,0.81479311,0.069237448,0.153995022,0.106736161,0.097354263,1.200800776,-0.839528084,-0.16460605,-0.286316514,0.840385377,-0.258910418,0.599548876,-0.617594361,-0.061969578,-0.294333011,-0.032227479,0.212116003,-0.043597158,0.516781211,-0.054863349,0.120185152,-0.492241919,0.311475366,0.181891903,-0.083599329,0.613627434,-0.575937986,-0.494740754,-0.513819635,-0.068053931,0.082797736,0.883487999,-0.828866541,-0.19321622,0.646570861,0.862562478,0.966128528,0.303285241,0.052576598,-0.534764409,-0.871058524,-0.373342991,-0.296803594,-0.12817654,0.362441897,0.967882454,-0.450717211,-0.647831917,0.279215187,-0.630519688,-0.200704619,0.224600881,0.183354095,0.564328194,-0.41768387,-0.43884626,0.881821871,-0.144381195,0.318121046,0.396945894,0.283482462,-0.916193426,-0.323878437,-0.984737158,-0.185581505,-0.529720068,0.998308837,-0.791931093,0.098932117,-0.715255678,0.381102741,-0.582145154,0.300474405,0.749978662,0.607455492,0.17405577,-0.013612226,0.677822828,-1.196022749,-0.650476038,-0.378093451,0.235285014,0.382298648,-0.257407635,-0.835541964,0.338642776,-0.148237988
mongoose,-0.279888511,-0.289960623,-0.446019411,-0.097637676,-0.19937925,-0.216761947,0.354811668,0.043628473,0.569175661,0.008025702,0.275137872,0.368944079,-0.187909156,0.032379691,-0.227773204,-0.756415725,-0.354858547,0.0167615,-0.008721984,-0.085935712,0.337038696,0.368220955,0.106088899,-0.384567976,-0.110086724,0.597654164,-0.22650376,0.024755336,0.310417056,-0.082871921,-0.090393856,-0.127392069,-0.841698468,-0.354871899,-0.038015973,-0.215086922,0.729318559,-0.380685359,-0.028711796,-1.015264511,-0.600726604,-0.236506566,0.077458225,-0.23244749,-0.35684365,0.460061699,-0.248555139,0.334103405,-0.208383158,-0.282289505,0.166844949,0.041733935,-0.577660799,0.065169625,0.065890044,0.350600392,-0.319055647,0.059488688,-0.204048514,-0.323783189,0.543852031,0.589539945,0.337829083,-0.146458939,-0.015355973,0.359032571,-0.176730618,0.246574,0.847951472,0.458068907,-0.036536817,0.30560118,0.26487425,-0.672741294,-0.066050075,0.096620955,0.304104149,-0.72888875,0.060584951,0.408536017,-0.27236867,-0.347085327,-0.42718327,-0.092315972,0.047474246,0.101940587,0.199883789,0.319837272,-0.626675785,0.240934193,-0.535145998,-0.192719117,0.140587643,0.27187708,-0.455429167,-0.472001404,0.301284283,-0.243420035,0.086463377,-0.009820585,-0.352857947,0.470534146,0.336897224,0.130678222,0.04828636,0.32650888,-0.448312283,-0.422132403,0.099675752,0.45021084,-0.398523182,0.22581698,0.563531518,0.787542462,0.42692548,-0.060006216,0.225593224,0.126180172,0.068043746,0.157308966,-0.471051425,0.126164213,-0.501106262,-0.200033635,-0.12027923,0.655027032,0.347908914,-0.12517564,-0.599073529,-0.382669866,0.602224052,-0.342620313,0.087295018,0.404073536,-0.121432506,0.804574907,-0.418987066,-0.06195778,-0.011850744,-0.370022893,-0.372155547,0.211231515,0.519635677,0.226843342,0.014478217,0.419867784,0.337079704,0.028023778,-0.235635355,-0.020333497,-0.000367367,0.116307907,0.175513387,-0.013013923,0.290835351,0.117378809,0.220280394,-0.192686245,-0.227579325,-0.185012639,0.026834277,0.293240935,0.232203245,-0.311488867,0.61311996,-0.547954619,-0.350828707,0.286674023,0.312533319,-0.106569134,0.196973339,0.061624415,0.51682508,-0.461308807,-0.108907983,0.077767901,0.611769736,0.17164667,0.034631085,-0.122578286,0.177515402,-0.411752284,-0.333631366,-0.313319147,-0.115992054,0.198042199,-0.26674968,0.365115047,0.242150128,-0.397999436,0.228813127,-0.189778537,0.383653373,-0.372372091,0.001335193,0.051131625,-0.49796316,-0.266315311,-0.330750138,-0.461364627,0.224133879,-0.220821053,-0.29769522,0.144406736,-0.736495376,0.369878799,0.170839444,0.22143802,0.127277642,0.277550727,0.294039518,0.202737644,0.411685884,-0.162153035,-0.125860527,0.028375404,0.32108447,-0.465314806,0.460763842,-0.218527883,0.319989979,0.098700821,0.165758863,-0.027805552,-0.048092693,-0.253082842,0.584640384,-0.386637807,0.053086918,0.653052866,-0.367893994,-0.084822565,0.195401192,0.526668608,-0.162794352,0.336868048,-0.319075614,-0.393117607,0.108191133,0.132450104,0.026922878,-0.353765041,-0.221025348,-0.150780901,-0.563210964,-0.172794551,-0.138851151,0.485588998,-0.0347187,0.319672555,-0.031654123,-0.043050479,0.506687284,-0.088479221,-0.497847497,0.037211467,-0.336084813,-0.24076131,0.094162419,-0.122130267,-0.052918568,-0.110452592,0.372497529,-0.589016914,0.513952672,0.536212981,0.081303969,0.215428799,0.088482715,-0.325106382,0.171702579,-0.3239187,-0.07088124,0.070325114,-0.047715746,0.23218441,-0.075657703,0.026849123,-0.214851588,0.016478885,0.009938205,-0.166683167,0.053077966,0.00034016,0.363840699,-0.427629501,-0.183706626,-0.01398609,0.109769933,-0.085061781,0.220777765,0.000462816,0.166879624,0.104275838,0.365233362,0.11884886,-0.887532532,-0.213846043,-0.198512629,-0.069333494
monotreme,0.129098549,0.082726501,-0.323559701,-0.156744599,-0.711251974,-0.020888092,0.198895469,0.429632574,0.434372276,0.457257599,-0.2359014,0.132788822,0.30905661,0.054276384,-0.320808768,-0.189473167,-0.066932514,-0.178942144,0.246171772,0.194920659,-0.135159284,0.277931243,-0.408144832,-0.388523757,0.05306153,0.149076581,-0.205167934,0.10416232,-0.226416543,-0.362575799,0.721034765,0.056887262,-0.203304112,0.135426909,0.489587516,0.68435359,0.247517169,-0.135973811,0.123677142,-0.73106873,-0.101599075,0.50956285,0.02448158,-0.063640848,-0.423772901,0.041721441,0.066741861,-0.145278454,-0.095447585,0.156399846,0.110824414,0.506401479,-0.237729773,0.098454937,0.269334018,0.521388471,-0.296900898,-0.137664586,-0.337934315,-0.185553923,0.001068933,0.556234062,-0.035343412,0.266278982,0.565956891,-0.055384565,0.280785412,0.495947003,0.244208366,0.034112237,-0.183966547,-0.045053188,-0.003692299,0.049736496,0.741454542,0.152258292,0.268570155,-0.442895263,-0.017525606,0.065001287,-0.168078572,0.264884949,-0.108819343,-0.164968506,0.171974808,-0.269464314,0.192986071,-0.158852324,-0.722539723,0.445874482,0.653107941,0.25010398,-0.436445743,-0.371946603,0.143436819,0.4030734,-0.144026682,-0.218369618,0.140787691,0.047117885,-0.727762878,0.36477983,0.145343021,-0.328222185,0.189549997,0.274355084,-0.129136562,-0.489727706,-0.611767948,0.396947503,-0.310119182,0.619452655,0.14818339,0.003763081,0.433895767,-0.419228882,-0.384334117,-0.095274463,0.237807453,-0.203677446,-0.040287074,0.042185642,-0.609170318,-0.135814145,-0.2374181,-0.349818468,0.319004446,0.097841009,-0.007607641,-0.160391793,0.150698647,-0.290199518,0.129047871,-0.459623128,-0.078846961,-0.048462328,0.092309393,-0.213418826,0.207130134,-0.469453245,-0.451054603,-0.498211384,-0.314886183,0.442121983,0.042106599,0.53988564,0.270175487,0.242313638,-0.050155926,-0.815645158,-0.317520291,-0.039066944,-0.414845943,0.423423946,-0.228025883,-0.635066509,-0.050305832,0.392794013,0.043534998,-0.319760799,0.42772463,-0.507642269,0.035750329,0.197423741,0.055223759,-0.17221798,0.033687826,0.035502657,0.065637931,0.314766258,0.405835301,-0.051258855,-0.06780982,0.161325932,-0.245653704,0.449069172,0.646101713,0.010758765,-0.133796409,-0.259942025,0.343333125,0.179636434,-0.228930786,-0.336956859,0.217777401,-0.210165247,-0.254368961,0.23295185,0.441424638,-0.257993788,0.09944392,0.12839298,0.054820552,0.147912979,0.450201899,0.263181865,0.164120778,-0.165161014,-0.044398986,0.04717778,-0.521857321,-0.371209443,0.006352745,0.029014947,-0.476716667,0.012830515,0.154502794,-0.508729875,0.205971286,-0.136117935,0.184205383,0.145857498,0.327189088,0.355512887,-0.217620954,-0.134856507,0.425568372,-0.389998049,0.712815106,-0.211038291,0.436946481,-0.726973951,0.324703634,0.080764763,-0.131569341,-0.043203291,0.920146823,0.218611807,-0.114152484,0.204017803,-0.252550036,-0.304462045,0.437536389,0.279324651,0.001131152,0.420345306,0.398038328,-0.302527875,-0.629282773,-0.331506133,-0.445970476,0.026404999,-0.054682989,-0.061237592,-0.477967918,-0.117427714,0.119951665,0.301278234,0.169107452,-0.011914081,-0.725614011,0.381035686,0.397048354,0.002209912,-0.114802018,0.481963784,-0.082158275,0.177252516,-0.142118901,-0.439338565,-0.098907098,-0.606763601,-0.530216336,0.056217298,0.573955595,0.324382305,0.069150679,-0.25865671,-0.259674132,-0.004219938,-0.088983692,-0.225387171,-0.031456869,0.13423343,0.46194151,-0.000271224,-0.198965251,-0.054265194,-0.052958667,0.571957827,-0.286354035,0.129405677,0.240013033,0.257563353,0.385673702,0.060354352,1.22625792,-0.246492594,-0.46757555,0.612846255,0.386328399,-0.400762498,0.960140824,-0.443851084,0.095572062,0.543188155,-0.171520814,0.286140501,-0.017317081,-0.208850294
